SVM-light Version V6.01
0 # kernel type
3 # kernel parameter -d 
1 # kernel parameter -g 
1 # kernel parameter -s 
1 # kernel parameter -r 
empty# kernel parameter -u 
10000 # highest feature index 
9603 # number of training documents 
605 # number of support vectors plus 1 
1.0694052 # threshold b, each following line is a SV (starting with alpha*y)
-0.0053961286742827442586278863245752 6:1 7:1 38:1 53:1 63:1 67:1 71:1 76:1 87:1 91:1 99:1 120:1 132:1 133:1 134:1 146:1 158:1 169:1 177:1 196:1 261:1 275:1 298:1 306:1 400:1 401:1 508:1 528:1 571:1 624:1 742:1 801:1 1115:1 1131:1 1168:1 1287:1 1683:1 2094:1 2112:1 2465:1 4250:1 4729:1 #
-0.010833324508263825203258079454827 46:1 106:1 1174:1 1832:1 2615:1 4618:1 5032:1 8754:1 #
-0.0010330192683721092956894427317138 4:1 6:1 7:1 10:1 30:1 43:1 50:1 64:1 75:1 120:1 122:1 130:1 137:1 154:1 213:1 245:1 286:1 338:1 344:1 345:1 400:1 434:1 503:1 522:1 570:1 706:1 735:1 739:1 802:1 870:1 887:1 950:1 969:1 1205:1 1223:1 1429:1 1856:1 2375:1 2630:1 3277:1 4783:1 #
-0.0021856844144863534634692925351374 4:1 6:1 24:1 26:1 30:1 38:1 48:1 54:1 59:1 72:1 80:1 87:1 98:1 119:1 120:1 121:1 122:1 123:1 145:1 156:1 165:1 179:1 185:1 192:1 193:1 196:1 249:1 348:1 360:1 434:1 452:1 481:1 487:1 501:1 563:1 566:1 657:1 763:1 765:1 768:1 829:1 859:1 906:1 918:1 1042:1 1051:1 1091:1 1129:1 1208:1 1273:1 1843:1 2054:1 2759:1 2829:1 2930:1 3855:1 6490:1 6606:1 9343:1 #
-0.012863655617230723010591120214485 46:1 3121:1 6971:1 8525:1 #
0.016579550709664020446965082555835 5:1 6:1 8:1 15:1 17:1 19:1 24:1 31:1 33:1 35:1 48:1 52:1 73:1 86:1 109:1 132:1 134:1 139:1 156:1 158:1 160:1 234:1 268:1 278:1 282:1 316:1 366:1 413:1 434:1 571:1 730:1 833:1 836:1 932:1 970:1 1003:1 1004:1 1022:1 1191:1 1198:1 1749:1 1988:1 2078:1 2143:1 2486:1 2757:1 2889:1 2898:1 3045:1 3051:1 3224:1 3654:1 3695:1 3785:1 4103:1 4579:1 4835:1 5024:1 5428:1 5679:1 6097:1 6163:1 6169:1 6916:1 6991:1 7012:1 7057:1 7503:1 7610:1 8469:1 #
0.018906467210143967916380347560334 4:1 5:1 6:1 10:1 17:1 23:1 24:1 26:1 31:1 33:1 48:1 50:1 80:1 109:1 113:1 126:1 134:1 152:1 154:1 156:1 179:1 193:1 218:1 259:1 286:1 311:1 324:1 360:1 434:1 450:1 470:1 494:1 501:1 560:1 604:1 657:1 719:1 721:1 814:1 836:1 856:1 865:1 887:1 1014:1 1074:1 1095:1 1235:1 1255:1 1280:1 1331:1 1429:1 1495:1 1536:1 1584:1 1618:1 1658:1 1753:1 1892:1 1976:1 2141:1 2185:1 2282:1 2332:1 2432:1 2442:1 2477:1 2496:1 2623:1 2663:1 2720:1 2763:1 3018:1 3026:1 3065:1 3066:1 3170:1 3272:1 3387:1 3447:1 3448:1 3467:1 3512:1 3660:1 3684:1 3699:1 3709:1 4138:1 #
0.018906467210143967916380347560334 6:1 7:1 8:1 15:1 19:1 24:1 31:1 33:1 35:1 48:1 73:1 87:1 104:1 142:1 166:1 182:1 195:1 296:1 393:1 413:1 434:1 439:1 442:1 477:1 500:1 540:1 641:1 651:1 681:1 683:1 736:1 843:1 855:1 920:1 924:1 1082:1 1114:1 1197:1 1320:1 1370:1 1414:1 1789:1 1826:1 2070:1 2089:1 2189:1 2196:1 2499:1 2536:1 2803:1 2937:1 3370:1 3723:1 6977:1 #
0.0013257960027391686632508571719313 5:1 6:1 15:1 19:1 24:1 31:1 33:1 48:1 62:1 68:1 103:1 109:1 116:1 120:1 139:1 141:1 182:1 208:1 234:1 281:1 294:1 310:1 340:1 353:1 377:1 399:1 413:1 417:1 434:1 456:1 495:1 553:1 571:1 644:1 681:1 713:1 730:1 740:1 748:1 882:1 920:1 938:1 943:1 1330:1 1402:1 1463:1 1484:1 1561:1 1569:1 1645:1 2058:1 2143:1 2182:1 2469:1 2483:1 2495:1 2542:1 2549:1 2618:1 2654:1 2703:1 2854:1 2948:1 3016:1 3038:1 3051:1 3093:1 3132:1 3224:1 3260:1 3263:1 3320:1 3336:1 3400:1 3459:1 3500:1 3649:1 3754:1 3779:1 3794:1 3823:1 3827:1 3843:1 3941:1 4065:1 4172:1 4231:1 4265:1 4289:1 4296:1 4336:1 4343:1 4386:1 4427:1 4534:1 4552:1 4581:1 4585:1 4590:1 4607:1 4609:1 4640:1 4645:1 4698:1 4733:1 4796:1 4817:1 4841:1 4924:1 4953:1 4961:1 4968:1 5028:1 5041:1 5054:1 5091:1 5104:1 5114:1 5119:1 5134:1 5141:1 5155:1 5179:1 5183:1 5239:1 5245:1 5258:1 5259:1 5277:1 5286:1 5290:1 5345:1 5354:1 5424:1 5431:1 5435:1 5513:1 5552:1 5558:1 5593:1 5632:1 5645:1 5753:1 5764:1 5782:1 5841:1 5857:1 6123:1 6219:1 #
0.013354624675330844033038779627987 6:1 7:1 8:1 15:1 19:1 31:1 33:1 35:1 38:1 40:1 41:1 45:1 47:1 48:1 64:1 70:1 75:1 77:1 82:1 96:1 98:1 104:1 106:1 107:1 120:1 159:1 160:1 178:1 182:1 188:1 193:1 234:1 255:1 309:1 376:1 388:1 393:1 415:1 417:1 434:1 481:1 508:1 600:1 627:1 644:1 657:1 713:1 767:1 770:1 816:1 909:1 925:1 955:1 1097:1 1123:1 1148:1 1171:1 1257:1 1340:1 1435:1 1667:1 1717:1 1847:1 2256:1 2259:1 2286:1 2420:1 2685:1 3523:1 3768:1 4308:1 4369:1 5108:1 6019:1 6020:1 6655:1 7455:1 7947:1 8312:1 #
0.015133963345821255588874443276381 4:1 5:1 6:1 7:1 11:1 24:1 26:1 37:1 48:1 53:1 73:1 86:1 100:1 113:1 116:1 124:1 161:1 172:1 177:1 204:1 232:1 234:1 248:1 434:1 624:1 700:1 742:1 753:1 807:1 844:1 1026:1 1287:1 1473:1 1802:1 2080:1 2588:1 2598:1 3353:1 3471:1 3521:1 8114:1 #
-0.0099422275811802025835550722376865 5:1 6:1 7:1 8:1 19:1 24:1 31:1 33:1 35:1 48:1 62:1 80:1 87:1 108:1 120:1 142:1 182:1 413:1 434:1 467:1 477:1 540:1 578:1 651:1 681:1 683:1 855:1 920:1 1082:1 1114:1 1238:1 1320:1 1370:1 1414:1 1424:1 1826:1 1901:1 2070:1 2189:1 2499:1 2803:1 2937:1 3100:1 3401:1 3596:1 3723:1 #
-0.014784699412747577540461207945555 5:1 6:1 7:1 8:1 10:1 19:1 24:1 31:1 33:1 35:1 43:1 46:1 48:1 80:1 87:1 97:1 111:1 120:1 126:1 142:1 182:1 413:1 434:1 477:1 508:1 578:1 651:1 681:1 683:1 718:1 736:1 920:1 1008:1 1082:1 1197:1 1320:1 1370:1 1377:1 1436:1 1490:1 1542:1 1826:1 1901:1 2083:1 2189:1 2499:1 2803:1 2937:1 3100:1 3401:1 3723:1 #
-0.0059284980493889988945044322576905 5:1 6:1 7:1 8:1 19:1 24:1 26:1 30:1 31:1 33:1 35:1 36:1 41:1 46:1 48:1 62:1 87:1 96:1 98:1 111:1 142:1 182:1 188:1 192:1 195:1 243:1 302:1 386:1 393:1 413:1 434:1 439:1 442:1 477:1 500:1 501:1 510:1 651:1 681:1 771:1 825:1 920:1 950:1 1320:1 1370:1 1478:1 1522:1 1542:1 1789:1 1826:1 2189:1 2499:1 3165:1 3648:1 3723:1 4282:1 4886:1 6927:1 8259:1 9230:1 9518:1 #
-0.0042382050481921942561291949402857 5:1 6:1 7:1 8:1 11:1 17:1 19:1 24:1 26:1 31:1 33:1 35:1 37:1 38:1 40:1 41:1 45:1 46:1 47:1 48:1 49:1 51:1 59:1 62:1 64:1 73:1 75:1 77:1 80:1 82:1 91:1 94:1 96:1 98:1 103:1 111:1 122:1 130:1 133:1 138:1 139:1 141:1 142:1 145:1 152:1 161:1 166:1 167:1 178:1 181:1 182:1 188:1 192:1 194:1 195:1 196:1 199:1 202:1 207:1 211:1 216:1 227:1 234:1 252:1 255:1 257:1 259:1 268:1 271:1 273:1 282:1 287:1 297:1 307:1 309:1 327:1 347:1 349:1 350:1 352:1 359:1 360:1 362:1 369:1 372:1 377:1 400:1 406:1 415:1 416:1 417:1 418:1 420:1 431:1 434:1 441:1 442:1 473:1 477:1 481:1 488:1 510:1 515:1 536:1 551:1 568:1 571:1 599:1 600:1 627:1 657:1 662:1 664:1 683:1 695:1 703:1 710:1 719:1 758:1 772:1 778:1 816:1 837:1 838:1 875:1 876:1 888:1 893:1 934:1 959:1 965:1 970:1 981:1 991:1 1001:1 1069:1 1080:1 1112:1 1131:1 1159:1 1162:1 1185:1 1210:1 1281:1 1306:1 1322:1 1323:1 1429:1 1435:1 1441:1 1484:1 1489:1 1532:1 1617:1 1645:1 1717:1 1721:1 1801:1 1818:1 1822:1 1845:1 1854:1 1962:1 1979:1 1981:1 1998:1 2019:1 2038:1 2044:1 2074:1 2091:1 2139:1 2424:1 2427:1 2459:1 2470:1 2520:1 2595:1 2698:1 2780:1 2790:1 2799:1 2809:1 2877:1 2925:1 2930:1 2944:1 2956:1 3005:1 3053:1 3091:1 3108:1 3308:1 3382:1 3587:1 3892:1 3947:1 4055:1 4123:1 4224:1 4293:1 4693:1 4764:1 4777:1 4798:1 5005:1 5719:1 5845:1 6377:1 6563:1 6874:1 7026:1 7152:1 7480:1 7847:1 7893:1 8248:1 8707:1 9302:1 9669:1 9867:1 #
0.018906467210143967916380347560334 6:1 7:1 15:1 18:1 20:1 24:1 45:1 47:1 61:1 72:1 77:1 78:1 87:1 94:1 120:1 123:1 130:1 142:1 159:1 161:1 167:1 177:1 180:1 217:1 229:1 252:1 256:1 279:1 314:1 344:1 352:1 434:1 464:1 486:1 613:1 624:1 635:1 662:1 763:1 795:1 803:1 924:1 943:1 1041:1 1084:1 1088:1 1213:1 1631:1 2031:1 2098:1 2201:1 2305:1 2545:1 2839:1 5006:1 5195:1 7055:1 8003:1 8379:1 8380:1 9061:1 9386:1 #
0.013944628482673982958206515547772 5:1 6:1 7:1 15:1 18:1 24:1 32:1 38:1 42:1 45:1 47:1 48:1 59:1 61:1 62:1 71:1 72:1 77:1 78:1 82:1 87:1 98:1 107:1 112:1 113:1 120:1 130:1 135:1 139:1 142:1 146:1 166:1 177:1 180:1 194:1 204:1 207:1 216:1 252:1 259:1 275:1 277:1 296:1 300:1 307:1 308:1 314:1 315:1 332:1 360:1 376:1 381:1 388:1 401:1 434:1 439:1 464:1 468:1 478:1 505:1 508:1 517:1 519:1 523:1 537:1 571:1 583:1 618:1 622:1 624:1 667:1 696:1 740:1 758:1 769:1 771:1 785:1 798:1 804:1 833:1 866:1 876:1 878:1 882:1 966:1 1041:1 1055:1 1089:1 1122:1 1135:1 1185:1 1203:1 1207:1 1208:1 1235:1 1276:1 1337:1 1340:1 1359:1 1444:1 1606:1 1638:1 1667:1 1720:1 1759:1 1797:1 1831:1 1890:1 1952:1 1964:1 2003:1 2007:1 2112:1 2328:1 2479:1 2602:1 2661:1 3262:1 3305:1 3806:1 4404:1 4450:1 4554:1 4651:1 4657:1 5457:1 5512:1 5882:1 6610:1 6690:1 7055:1 7356:1 7410:1 7722:1 7775:1 8888:1 8889:1 8890:1 8891:1 9061:1 9301:1 #
0.018906467210143967916380347560334 4:1 6:1 7:1 8:1 15:1 17:1 24:1 39:1 41:1 45:1 62:1 69:1 73:1 75:1 78:1 81:1 87:1 96:1 98:1 107:1 108:1 111:1 120:1 121:1 139:1 141:1 153:1 156:1 165:1 167:1 173:1 179:1 192:1 218:1 251:1 265:1 283:1 292:1 324:1 348:1 362:1 365:1 375:1 393:1 416:1 422:1 425:1 434:1 436:1 442:1 510:1 536:1 578:1 599:1 609:1 615:1 690:1 696:1 697:1 705:1 710:1 758:1 799:1 874:1 893:1 922:1 929:1 1028:1 1031:1 1070:1 1078:1 1091:1 1134:1 1135:1 1162:1 1207:1 1420:1 1444:1 1505:1 1519:1 1599:1 1607:1 1625:1 1664:1 1723:1 1901:1 1934:1 2198:1 2268:1 2309:1 2403:1 2634:1 2664:1 2864:1 3359:1 4634:1 4654:1 4768:1 4813:1 4879:1 5050:1 5379:1 5437:1 5442:1 6022:1 8852:1 8989:1 9024:1 9368:1 #
0.018906467210143967916380347560334 4:1 6:1 7:1 19:1 24:1 42:1 48:1 54:1 59:1 75:1 76:1 87:1 98:1 111:1 113:1 120:1 121:1 130:1 192:1 249:1 256:1 270:1 277:1 330:1 338:1 344:1 348:1 355:1 393:1 434:1 436:1 475:1 538:1 563:1 580:1 639:1 763:1 795:1 933:1 958:1 1021:1 1091:1 1151:1 1208:1 1267:1 1318:1 1436:1 1806:1 2137:1 2365:1 2428:1 2554:1 3290:1 4069:1 4552:1 #
0.013642524239248539005830984649492 6:1 7:1 24:1 42:1 47:1 70:1 75:1 78:1 80:1 82:1 87:1 93:1 98:1 111:1 113:1 120:1 122:1 146:1 152:1 156:1 180:1 192:1 196:1 204:1 244:1 268:1 345:1 347:1 391:1 423:1 426:1 434:1 493:1 494:1 508:1 510:1 517:1 541:1 573:1 579:1 583:1 618:1 624:1 639:1 673:1 706:1 712:1 742:1 764:1 926:1 1050:1 1121:1 1207:1 1208:1 1272:1 1404:1 1436:1 1504:1 1542:1 1600:1 1665:1 1758:1 1992:1 2205:1 2259:1 2382:1 2451:1 2505:1 2653:1 2654:1 2766:1 2860:1 3004:1 3369:1 3528:1 4099:1 4595:1 4959:1 5185:1 5443:1 6507:1 6732:1 8391:1 #
-0.0047838502234662412526677854884838 4:1 6:1 7:1 8:1 10:1 15:1 19:1 24:1 31:1 33:1 35:1 37:1 38:1 39:1 41:1 42:1 47:1 48:1 50:1 51:1 59:1 62:1 64:1 68:1 72:1 73:1 75:1 76:1 77:1 78:1 80:1 82:1 87:1 93:1 96:1 98:1 107:1 111:1 119:1 120:1 121:1 123:1 125:1 130:1 137:1 139:1 146:1 152:1 154:1 156:1 158:1 159:1 165:1 166:1 167:1 177:1 192:1 193:1 194:1 196:1 197:1 202:1 205:1 207:1 210:1 216:1 223:1 230:1 234:1 244:1 249:1 251:1 256:1 259:1 267:1 268:1 271:1 273:1 274:1 283:1 284:1 287:1 296:1 299:1 302:1 313:1 316:1 317:1 326:1 330:1 331:1 333:1 335:1 338:1 344:1 357:1 360:1 370:1 387:1 388:1 390:1 393:1 396:1 399:1 406:1 408:1 414:1 415:1 432:1 434:1 436:1 437:1 453:1 459:1 463:1 465:1 468:1 486:1 497:1 508:1 515:1 519:1 542:1 543:1 571:1 579:1 581:1 591:1 592:1 593:1 594:1 631:1 632:1 657:1 662:1 667:1 685:1 695:1 703:1 705:1 719:1 727:1 731:1 737:1 771:1 772:1 783:1 801:1 803:1 819:1 824:1 859:1 863:1 868:1 876:1 886:1 891:1 893:1 899:1 914:1 923:1 935:1 940:1 956:1 994:1 997:1 1004:1 1010:1 1021:1 1022:1 1034:1 1048:1 1049:1 1050:1 1055:1 1063:1 1072:1 1099:1 1121:1 1125:1 1126:1 1165:1 1198:1 1208:1 1227:1 1250:1 1257:1 1265:1 1275:1 1276:1 1285:1 1302:1 1364:1 1395:1 1397:1 1436:1 1443:1 1541:1 1547:1 1562:1 1565:1 1597:1 1608:1 1627:1 1638:1 1653:1 1758:1 1759:1 1764:1 1793:1 1797:1 1856:1 1880:1 1901:1 1962:1 1975:1 2024:1 2050:1 2081:1 2115:1 2155:1 2178:1 2218:1 2245:1 2256:1 2287:1 2400:1 2409:1 2427:1 2470:1 2505:1 2513:1 2641:1 2684:1 2746:1 2839:1 2937:1 2956:1 3112:1 3198:1 3302:1 3487:1 3554:1 3556:1 3688:1 3720:1 3815:1 3978:1 4040:1 4111:1 4177:1 4272:1 4372:1 4649:1 4654:1 4848:1 4895:1 5050:1 5081:1 5232:1 5583:1 5597:1 5661:1 5837:1 6254:1 6340:1 6491:1 6724:1 6736:1 6779:1 6969:1 6999:1 7353:1 8229:1 8236:1 8949:1 9139:1 9144:1 9145:1 9254:1 9263:1 9630:1 9957:1 9988:1 #
-0.012685328056804395444046029695073 6:1 7:1 15:1 20:1 24:1 31:1 33:1 38:1 41:1 42:1 45:1 48:1 59:1 61:1 62:1 72:1 78:1 82:1 87:1 94:1 102:1 112:1 123:1 130:1 135:1 142:1 146:1 159:1 166:1 177:1 178:1 180:1 194:1 195:1 207:1 217:1 223:1 229:1 230:1 252:1 275:1 307:1 338:1 344:1 434:1 475:1 495:1 517:1 566:1 624:1 635:1 649:1 914:1 924:1 943:1 1055:1 1089:1 1171:1 1204:1 1213:1 1239:1 1285:1 1360:1 1393:1 1444:1 1493:1 1511:1 1529:1 1530:1 1599:1 1607:1 1736:1 1763:1 1975:1 2031:1 2050:1 2293:1 2381:1 2474:1 2545:1 2572:1 2676:1 2815:1 2839:1 3262:1 3641:1 4701:1 5901:1 7055:1 8003:1 8048:1 8379:1 8380:1 9386:1 9585:1 #
-0.0025786863750203586898024354923109 6:1 7:1 24:1 34:1 37:1 39:1 41:1 42:1 45:1 47:1 48:1 59:1 60:1 61:1 62:1 71:1 73:1 78:1 82:1 87:1 98:1 107:1 111:1 120:1 135:1 146:1 156:1 159:1 166:1 177:1 180:1 193:1 194:1 204:1 208:1 223:1 230:1 234:1 244:1 249:1 252:1 256:1 260:1 268:1 277:1 282:1 295:1 296:1 312:1 316:1 324:1 338:1 348:1 366:1 393:1 396:1 400:1 434:1 436:1 439:1 444:1 459:1 477:1 481:1 503:1 508:1 510:1 514:1 517:1 519:1 537:1 548:1 563:1 581:1 583:1 618:1 624:1 649:1 657:1 662:1 684:1 692:1 700:1 733:1 749:1 763:1 769:1 781:1 791:1 797:1 814:1 817:1 819:1 820:1 859:1 883:1 893:1 929:1 933:1 947:1 974:1 997:1 1003:1 1034:1 1075:1 1084:1 1198:1 1208:1 1226:1 1273:1 1294:1 1301:1 1336:1 1428:1 1436:1 1444:1 1447:1 1478:1 1482:1 1542:1 1556:1 1606:1 1680:1 1688:1 1702:1 1715:1 1789:1 1880:1 1911:1 1949:1 1964:1 2033:1 2037:1 2074:1 2080:1 2112:1 2228:1 2259:1 2356:1 2374:1 2489:1 2507:1 2596:1 2632:1 2652:1 2805:1 2829:1 2930:1 3002:1 3113:1 3262:1 3296:1 3339:1 3355:1 3418:1 3427:1 3501:1 4001:1 4037:1 4145:1 4274:1 4389:1 4459:1 4461:1 4559:1 4984:1 4996:1 5316:1 6307:1 6570:1 6685:1 8377:1 8984:1 9017:1 #
-0.0096397602291814835084871049275534 5:1 6:1 8:1 17:1 19:1 24:1 31:1 33:1 35:1 48:1 77:1 106:1 111:1 141:1 172:1 218:1 230:1 234:1 238:1 311:1 316:1 330:1 349:1 413:1 418:1 434:1 439:1 508:1 526:1 527:1 679:1 721:1 758:1 771:1 811:1 825:1 833:1 835:1 886:1 912:1 916:1 938:1 960:1 978:1 1210:1 1364:1 1393:1 1417:1 1420:1 1538:1 1562:1 1580:1 1869:1 1878:1 1890:1 1967:1 2396:1 2717:1 2764:1 2768:1 3119:1 3126:1 3967:1 4112:1 4291:1 4294:1 5149:1 5606:1 8087:1 8878:1 9201:1 #
-0.00065442070088971319649640001614443 102:1 870:1 1470:1 1685:1 1696:1 1862:1 2167:1 7601:1 7704:1 8860:1 #
0.018906467210143967916380347560334 6:1 7:1 8:1 11:1 15:1 19:1 24:1 31:1 33:1 35:1 38:1 40:1 48:1 62:1 87:1 106:1 120:1 142:1 166:1 182:1 185:1 218:1 362:1 401:1 434:1 477:1 587:1 651:1 681:1 683:1 721:1 859:1 872:1 920:1 1003:1 1082:1 1114:1 1240:1 1244:1 1320:1 1370:1 1415:1 1424:1 1804:1 1998:1 2189:1 2196:1 2487:1 2803:1 2937:1 3439:1 4316:1 4494:1 5708:1 7041:1 9518:1 #
0.017463536538636043743411008222211 5:1 6:1 7:1 8:1 15:1 17:1 19:1 24:1 26:1 31:1 33:1 35:1 41:1 42:1 46:1 47:1 48:1 50:1 51:1 62:1 64:1 67:1 68:1 69:1 71:1 73:1 76:1 77:1 78:1 80:1 81:1 82:1 87:1 96:1 98:1 103:1 107:1 111:1 120:1 132:1 136:1 138:1 142:1 156:1 159:1 165:1 166:1 181:1 182:1 188:1 192:1 202:1 223:1 230:1 231:1 234:1 237:1 244:1 281:1 287:1 302:1 334:1 338:1 349:1 366:1 369:1 393:1 396:1 401:1 417:1 434:1 459:1 481:1 502:1 508:1 510:1 519:1 527:1 571:1 594:1 651:1 660:1 681:1 712:1 740:1 753:1 782:1 820:1 823:1 854:1 866:1 882:1 899:1 916:1 920:1 950:1 990:1 1084:1 1088:1 1122:1 1171:1 1208:1 1214:1 1271:1 1282:1 1294:1 1314:1 1417:1 1431:1 1482:1 1489:1 1490:1 1538:1 1542:1 1582:1 1672:1 1703:1 1705:1 1741:1 1779:1 1854:1 1912:1 2154:1 2164:1 2213:1 2386:1 2534:1 3202:1 3401:1 3555:1 4577:1 5425:1 5532:1 5943:1 5944:1 5997:1 6096:1 6172:1 6334:1 6400:1 6686:1 6701:1 8896:1 9133:1 #
0.018906467210143967916380347560334 4:1 5:1 6:1 7:1 8:1 15:1 19:1 24:1 35:1 36:1 46:1 48:1 62:1 120:1 146:1 154:1 197:1 236:1 302:1 375:1 434:1 467:1 469:1 477:1 501:1 592:1 919:1 1028:1 1030:1 1090:1 1469:1 1826:1 2006:1 2341:1 2428:1 4236:1 8454:1 9459:1 #
0.0059656994659945802514378065950496 4:1 5:1 6:1 7:1 8:1 11:1 15:1 17:1 19:1 24:1 26:1 35:1 37:1 39:1 40:1 41:1 42:1 45:1 46:1 47:1 48:1 54:1 58:1 59:1 62:1 67:1 71:1 72:1 77:1 80:1 84:1 96:1 97:1 98:1 103:1 107:1 111:1 112:1 120:1 121:1 122:1 126:1 138:1 142:1 145:1 146:1 161:1 174:1 177:1 178:1 182:1 188:1 192:1 195:1 199:1 202:1 205:1 207:1 211:1 216:1 224:1 231:1 255:1 256:1 259:1 267:1 270:1 271:1 280:1 282:1 284:1 285:1 287:1 294:1 296:1 297:1 299:1 302:1 309:1 312:1 313:1 319:1 331:1 347:1 355:1 359:1 360:1 388:1 390:1 397:1 401:1 406:1 434:1 442:1 463:1 465:1 481:1 493:1 510:1 513:1 560:1 571:1 574:1 593:1 606:1 620:1 636:1 657:1 659:1 662:1 665:1 679:1 683:1 688:1 690:1 713:1 718:1 719:1 736:1 737:1 761:1 767:1 770:1 771:1 804:1 808:1 811:1 825:1 843:1 862:1 868:1 876:1 907:1 915:1 919:1 928:1 941:1 946:1 950:1 959:1 1010:1 1031:1 1053:1 1058:1 1135:1 1164:1 1169:1 1193:1 1197:1 1199:1 1202:1 1220:1 1235:1 1239:1 1243:1 1247:1 1252:1 1284:1 1310:1 1317:1 1340:1 1364:1 1395:1 1417:1 1446:1 1480:1 1511:1 1538:1 1555:1 1560:1 1627:1 1633:1 1641:1 1671:1 1701:1 1716:1 1731:1 1786:1 1818:1 1835:1 1901:1 1934:1 1937:1 2005:1 2062:1 2065:1 2068:1 2073:1 2074:1 2111:1 2471:1 2512:1 2515:1 2527:1 2579:1 2585:1 2658:1 2660:1 2740:1 2746:1 2762:1 2785:1 2800:1 2810:1 2856:1 2861:1 2911:1 3047:1 3050:1 3074:1 3140:1 3204:1 3270:1 3300:1 3409:1 3411:1 3475:1 3481:1 3493:1 3566:1 3631:1 3705:1 3787:1 3971:1 4034:1 4043:1 4075:1 4101:1 4147:1 4153:1 4287:1 4306:1 4573:1 4626:1 4875:1 5211:1 5519:1 5557:1 5639:1 5849:1 5994:1 6153:1 6281:1 #
0.018906467210143967916380347560334 5:1 6:1 15:1 17:1 48:1 68:1 73:1 80:1 87:1 111:1 139:1 141:1 142:1 166:1 182:1 188:1 251:1 256:1 302:1 317:1 366:1 396:1 452:1 502:1 527:1 651:1 681:1 882:1 920:1 1030:1 1122:1 1734:1 1835:1 2122:1 2440:1 4507:1 5784:1 6513:1 6793:1 9963:1 #
-0.018906467210143967916380347560334 4:1 5:1 6:1 17:1 23:1 24:1 26:1 31:1 33:1 47:1 48:1 59:1 75:1 94:1 98:1 109:1 113:1 141:1 156:1 179:1 216:1 218:1 288:1 311:1 434:1 450:1 470:1 481:1 527:1 560:1 577:1 580:1 604:1 836:1 856:1 865:1 886:1 1122:1 1425:1 1536:1 1892:1 2443:1 2717:1 3023:1 3756:1 4610:1 5465:1 5638:1 8026:1 #
-0.017826596426671451750545216441424 4:1 6:1 17:1 30:1 42:1 54:1 64:1 69:1 91:1 120:1 132:1 133:1 141:1 156:1 165:1 179:1 193:1 256:1 324:1 375:1 434:1 459:1 481:1 522:1 570:1 575:1 672:1 918:1 1028:1 1070:1 1074:1 1175:1 1237:1 1505:1 1599:1 2185:1 2440:1 4832:1 8213:1 #
-0.0097814804080411672099204523078697 4:1 5:1 6:1 7:1 19:1 24:1 36:1 47:1 54:1 62:1 82:1 98:1 107:1 120:1 121:1 130:1 156:1 165:1 166:1 204:1 311:1 312:1 316:1 330:1 344:1 347:1 365:1 388:1 393:1 434:1 436:1 475:1 501:1 508:1 527:1 538:1 580:1 615:1 665:1 765:1 771:1 843:1 857:1 958:1 1021:1 1174:1 1204:1 1208:1 1429:1 1572:1 1806:1 1928:1 2171:1 2641:1 3366:1 7002:1 #
-0.018906467210143967916380347560334 4:1 5:1 6:1 8:1 17:1 19:1 24:1 35:1 36:1 39:1 40:1 50:1 54:1 75:1 82:1 87:1 106:1 145:1 154:1 193:1 210:1 286:1 345:1 441:1 696:1 1042:1 1266:1 1703:1 3584:1 3925:1 5105:1 #
-0.018906467210143967916380347560334 4:1 6:1 7:1 17:1 19:1 23:1 24:1 46:1 48:1 54:1 66:1 75:1 87:1 120:1 122:1 124:1 130:1 142:1 156:1 201:1 204:1 234:1 253:1 264:1 277:1 296:1 326:1 330:1 344:1 355:1 377:1 393:1 434:1 439:1 449:1 469:1 475:1 483:1 527:1 538:1 580:1 607:1 609:1 633:1 845:1 958:1 1021:1 1151:1 1292:1 1318:1 1429:1 1806:1 3306:1 5931:1 6983:1 #
0.012390151443095437366892497266235 4:1 5:1 6:1 7:1 8:1 11:1 15:1 17:1 19:1 24:1 26:1 35:1 36:1 37:1 38:1 40:1 41:1 45:1 47:1 48:1 51:1 59:1 62:1 64:1 66:1 73:1 75:1 77:1 80:1 82:1 84:1 87:1 96:1 98:1 107:1 111:1 120:1 123:1 124:1 134:1 135:1 138:1 139:1 142:1 145:1 152:1 157:1 159:1 161:1 166:1 178:1 188:1 192:1 193:1 194:1 195:1 196:1 198:1 199:1 202:1 204:1 223:1 227:1 230:1 234:1 251:1 255:1 273:1 274:1 284:1 287:1 295:1 296:1 308:1 309:1 310:1 312:1 313:1 316:1 319:1 327:1 330:1 352:1 357:1 359:1 360:1 362:1 369:1 373:1 375:1 377:1 382:1 399:1 406:1 414:1 434:1 441:1 453:1 467:1 474:1 477:1 508:1 526:1 527:1 536:1 543:1 551:1 568:1 571:1 581:1 594:1 599:1 600:1 606:1 613:1 635:1 636:1 641:1 657:1 671:1 678:1 685:1 688:1 690:1 692:1 694:1 716:1 717:1 725:1 734:1 758:1 763:1 765:1 767:1 770:1 778:1 784:1 797:1 801:1 816:1 825:1 834:1 837:1 838:1 888:1 913:1 959:1 960:1 971:1 989:1 995:1 1003:1 1011:1 1034:1 1055:1 1069:1 1080:1 1084:1 1112:1 1117:1 1131:1 1162:1 1164:1 1169:1 1186:1 1199:1 1204:1 1239:1 1247:1 1248:1 1274:1 1323:1 1340:1 1349:1 1384:1 1395:1 1422:1 1423:1 1436:1 1451:1 1452:1 1462:1 1543:1 1555:1 1578:1 1582:1 1587:1 1650:1 1670:1 1672:1 1693:1 1723:1 1834:1 1870:1 1874:1 1890:1 1940:1 1944:1 2038:1 2151:1 2155:1 2174:1 2219:1 2271:1 2285:1 2291:1 2385:1 2399:1 2470:1 2497:1 2555:1 2557:1 2715:1 2741:1 2743:1 2821:1 2834:1 2933:1 3108:1 3212:1 3217:1 3226:1 3264:1 3270:1 3271:1 3292:1 3322:1 3463:1 3530:1 3579:1 3587:1 3590:1 3617:1 3625:1 3669:1 3845:1 3870:1 3903:1 3947:1 3961:1 3962:1 3985:1 4007:1 4132:1 4255:1 4293:1 4524:1 4525:1 4617:1 4702:1 4749:1 4797:1 4812:1 4825:1 4869:1 4884:1 4940:1 4943:1 5027:1 5051:1 5163:1 5374:1 5441:1 5709:1 5756:1 5786:1 5927:1 6253:1 6403:1 6615:1 6620:1 6650:1 6853:1 6895:1 6911:1 6955:1 7001:1 7310:1 7517:1 8042:1 8048:1 8161:1 8334:1 8869:1 8960:1 9093:1 9109:1 #
0.0034186635061040819907884902306705 6:1 7:1 8:1 11:1 15:1 17:1 19:1 24:1 31:1 33:1 35:1 37:1 39:1 41:1 42:1 45:1 46:1 47:1 48:1 54:1 59:1 61:1 62:1 64:1 66:1 69:1 70:1 72:1 73:1 75:1 77:1 80:1 87:1 93:1 96:1 98:1 107:1 111:1 119:1 120:1 121:1 122:1 125:1 129:1 130:1 137:1 138:1 139:1 146:1 152:1 167:1 173:1 177:1 188:1 192:1 194:1 195:1 202:1 205:1 207:1 216:1 226:1 228:1 230:1 231:1 256:1 271:1 273:1 284:1 287:1 293:1 296:1 297:1 302:1 310:1 312:1 313:1 316:1 319:1 331:1 344:1 348:1 360:1 370:1 390:1 393:1 399:1 406:1 408:1 414:1 415:1 422:1 425:1 432:1 434:1 442:1 465:1 474:1 476:1 480:1 481:1 487:1 488:1 497:1 505:1 526:1 536:1 537:1 541:1 568:1 571:1 574:1 578:1 581:1 593:1 594:1 599:1 600:1 606:1 619:1 659:1 678:1 694:1 695:1 705:1 716:1 719:1 758:1 763:1 765:1 778:1 783:1 784:1 799:1 802:1 803:1 805:1 815:1 819:1 876:1 888:1 889:1 899:1 908:1 912:1 914:1 942:1 955:1 978:1 981:1 994:1 1063:1 1068:1 1078:1 1099:1 1116:1 1117:1 1136:1 1149:1 1164:1 1169:1 1171:1 1185:1 1222:1 1239:1 1244:1 1250:1 1257:1 1281:1 1288:1 1324:1 1338:1 1347:1 1361:1 1395:1 1396:1 1507:1 1528:1 1553:1 1577:1 1631:1 1664:1 1667:1 1671:1 1710:1 1731:1 1740:1 1759:1 1763:1 1776:1 1797:1 1859:1 1900:1 1908:1 1975:1 1981:1 2003:1 2155:1 2208:1 2245:1 2246:1 2258:1 2336:1 2367:1 2402:1 2490:1 2493:1 2555:1 2596:1 2638:1 2640:1 2647:1 2652:1 2661:1 2752:1 2801:1 2815:1 2819:1 2826:1 2843:1 2849:1 2856:1 2931:1 3061:1 3156:1 3189:1 3327:1 3365:1 3408:1 3433:1 3437:1 3456:1 3645:1 3852:1 3873:1 3963:1 4162:1 4297:1 4304:1 4417:1 4475:1 4486:1 4575:1 4769:1 4786:1 4895:1 4988:1 5044:1 5599:1 5623:1 5809:1 6088:1 6122:1 6308:1 6393:1 6662:1 6736:1 6768:1 6932:1 7146:1 7172:1 7219:1 7410:1 7437:1 7506:1 7621:1 8191:1 8271:1 8375:1 8520:1 9120:1 9283:1 9582:1 9647:1 9812:1 #
0.0056131414186858840167926310016355 4:1 6:1 7:1 15:1 19:1 24:1 30:1 31:1 33:1 37:1 38:1 41:1 45:1 47:1 48:1 51:1 54:1 59:1 62:1 80:1 84:1 86:1 96:1 100:1 104:1 107:1 120:1 130:1 135:1 137:1 139:1 159:1 161:1 166:1 177:1 193:1 204:1 229:1 234:1 249:1 276:1 277:1 307:1 309:1 311:1 330:1 338:1 344:1 360:1 388:1 427:1 433:1 434:1 469:1 475:1 495:1 618:1 701:1 734:1 843:1 851:1 857:1 878:1 899:1 905:1 969:1 1041:1 1061:1 1157:1 1167:1 1254:1 1381:1 1421:1 1517:1 1605:1 1608:1 1656:1 1757:1 1830:1 1869:1 1872:1 1890:1 1894:1 2365:1 2439:1 2480:1 2558:1 2770:1 2788:1 2839:1 3708:1 4043:1 4118:1 4234:1 4321:1 4416:1 5075:1 5612:1 5821:1 5885:1 6827:1 6923:1 7588:1 8902:1 #
0.013520024579510960330286373221043 4:1 6:1 7:1 8:1 15:1 19:1 31:1 33:1 41:1 45:1 47:1 73:1 75:1 87:1 96:1 98:1 104:1 107:1 111:1 120:1 121:1 130:1 145:1 157:1 179:1 192:1 198:1 199:1 207:1 277:1 317:1 319:1 360:1 370:1 372:1 375:1 414:1 416:1 434:1 467:1 501:1 515:1 636:1 763:1 783:1 954:1 955:1 1080:1 1288:1 1599:1 1801:1 2091:1 2687:1 2815:1 2877:1 3005:1 3177:1 4315:1 4710:1 #
0.0045028054024250935977180532177044 4:1 6:1 7:1 11:1 17:1 23:1 24:1 38:1 39:1 42:1 47:1 48:1 50:1 59:1 62:1 64:1 73:1 75:1 80:1 81:1 82:1 87:1 93:1 94:1 96:1 107:1 109:1 111:1 113:1 122:1 129:1 133:1 146:1 154:1 161:1 165:1 166:1 179:1 192:1 194:1 195:1 197:1 204:1 207:1 210:1 218:1 230:1 245:1 256:1 277:1 284:1 286:1 288:1 293:1 296:1 297:1 309:1 329:1 343:1 345:1 349:1 360:1 366:1 382:1 389:1 391:1 400:1 423:1 434:1 439:1 448:1 450:1 452:1 470:1 487:1 493:1 503:1 508:1 537:1 540:1 566:1 595:1 604:1 618:1 629:1 632:1 673:1 676:1 694:1 696:1 719:1 720:1 733:1 734:1 740:1 741:1 763:1 765:1 768:1 771:1 778:1 814:1 828:1 833:1 869:1 885:1 892:1 952:1 954:1 956:1 957:1 972:1 997:1 1000:1 1016:1 1034:1 1036:1 1039:1 1063:1 1076:1 1077:1 1118:1 1124:1 1132:1 1162:1 1223:1 1244:1 1266:1 1271:1 1284:1 1301:1 1304:1 1321:1 1336:1 1367:1 1381:1 1385:1 1404:1 1405:1 1406:1 1407:1 1408:1 1410:1 1431:1 1465:1 1509:1 1547:1 1563:1 1620:1 1632:1 1642:1 1669:1 1675:1 1712:1 1721:1 1731:1 1777:1 1789:1 1808:1 1823:1 1827:1 1848:1 1854:1 1888:1 1896:1 1994:1 2030:1 2046:1 2047:1 2048:1 2049:1 2103:1 2122:1 2129:1 2179:1 2190:1 2195:1 2270:1 2299:1 2308:1 2310:1 2356:1 2397:1 2407:1 2441:1 2454:1 2459:1 2522:1 2562:1 2573:1 2606:1 2665:1 2721:1 2737:1 2824:1 2850:1 2880:1 2905:1 2910:1 3011:1 3081:1 3474:1 3738:1 3748:1 3834:1 3853:1 3925:1 4092:1 4910:1 5105:1 5113:1 5248:1 6085:1 6469:1 6564:1 6591:1 6825:1 6843:1 7153:1 7213:1 7231:1 7305:1 #
-0.0056210360007525883574430736189242 6:1 7:1 8:1 11:1 15:1 19:1 23:1 24:1 25:1 27:1 30:1 31:1 33:1 35:1 37:1 39:1 40:1 41:1 45:1 46:1 47:1 48:1 50:1 51:1 54:1 59:1 62:1 64:1 66:1 68:1 70:1 71:1 75:1 76:1 77:1 78:1 87:1 96:1 98:1 107:1 120:1 125:1 130:1 138:1 139:1 142:1 146:1 166:1 167:1 177:1 181:1 182:1 188:1 192:1 193:1 194:1 195:1 196:1 204:1 205:1 207:1 218:1 226:1 227:1 234:1 237:1 244:1 255:1 269:1 270:1 271:1 277:1 281:1 284:1 293:1 295:1 297:1 302:1 309:1 313:1 319:1 330:1 337:1 347:1 348:1 355:1 360:1 370:1 387:1 388:1 390:1 393:1 398:1 399:1 401:1 406:1 408:1 415:1 417:1 420:1 425:1 427:1 434:1 442:1 461:1 468:1 474:1 481:1 486:1 488:1 500:1 508:1 515:1 519:1 534:1 536:1 551:1 568:1 574:1 580:1 594:1 599:1 606:1 619:1 635:1 640:1 651:1 659:1 662:1 663:1 669:1 681:1 683:1 697:1 715:1 716:1 736:1 737:1 758:1 763:1 778:1 793:1 801:1 809:1 817:1 833:1 861:1 866:1 888:1 902:1 908:1 913:1 914:1 920:1 932:1 947:1 950:1 967:1 978:1 981:1 1010:1 1031:1 1099:1 1117:1 1123:1 1135:1 1158:1 1164:1 1165:1 1202:1 1211:1 1288:1 1340:1 1352:1 1361:1 1417:1 1430:1 1434:1 1436:1 1446:1 1451:1 1458:1 1489:1 1490:1 1535:1 1570:1 1599:1 1715:1 1746:1 1763:1 1801:1 1822:1 1845:1 1854:1 1937:1 1961:1 1962:1 1964:1 1966:1 2081:1 2091:1 2109:1 2111:1 2212:1 2247:1 2251:1 2259:1 2293:1 2331:1 2433:1 2572:1 2584:1 2661:1 2709:1 2712:1 2747:1 2770:1 2771:1 2785:1 2804:1 2833:1 2838:1 2853:1 3005:1 3043:1 3242:1 3322:1 3417:1 3478:1 3540:1 3909:1 3963:1 4010:1 4032:1 4081:1 4145:1 4155:1 4303:1 4485:1 4763:1 4802:1 5034:1 5082:1 5312:1 5341:1 5423:1 5464:1 5936:1 6036:1 6120:1 6661:1 6932:1 7172:1 7174:1 7311:1 7571:1 8148:1 8191:1 8584:1 9261:1 9377:1 #
-0.0048364254663578517406952173018908 5:1 6:1 7:1 8:1 15:1 24:1 31:1 33:1 35:1 38:1 41:1 42:1 45:1 47:1 48:1 50:1 59:1 62:1 70:1 73:1 75:1 77:1 82:1 87:1 93:1 94:1 96:1 98:1 100:1 107:1 111:1 120:1 122:1 129:1 138:1 142:1 152:1 161:1 167:1 182:1 188:1 192:1 204:1 216:1 218:1 245:1 251:1 271:1 282:1 284:1 297:1 302:1 310:1 318:1 319:1 329:1 338:1 345:1 347:1 348:1 355:1 360:1 382:1 388:1 390:1 393:1 399:1 406:1 415:1 420:1 425:1 426:1 428:1 431:1 434:1 439:1 537:1 543:1 548:1 572:1 581:1 594:1 600:1 657:1 669:1 687:1 690:1 714:1 718:1 719:1 728:1 758:1 776:1 784:1 795:1 855:1 866:1 885:1 913:1 914:1 933:1 946:1 956:1 970:1 978:1 987:1 1045:1 1053:1 1078:1 1105:1 1125:1 1164:1 1199:1 1204:1 1207:1 1220:1 1241:1 1261:1 1276:1 1288:1 1323:1 1348:1 1417:1 1429:1 1434:1 1435:1 1446:1 1452:1 1493:1 1497:1 1512:1 1522:1 1523:1 1532:1 1545:1 1570:1 1600:1 1633:1 1650:1 1667:1 1692:1 1703:1 1720:1 1818:1 1823:1 1854:1 1858:1 1937:1 1964:1 1966:1 2005:1 2350:1 2358:1 2359:1 2379:1 2399:1 2406:1 2407:1 2484:1 2515:1 2538:1 2555:1 2567:1 2628:1 2661:1 2664:1 2697:1 2754:1 2765:1 2785:1 2800:1 2816:1 2833:1 2927:1 2944:1 2969:1 2990:1 3074:1 3092:1 3243:1 3327:1 3434:1 3462:1 3493:1 3566:1 3602:1 3626:1 3655:1 3739:1 3768:1 3876:1 3896:1 4171:1 4259:1 4372:1 4556:1 4574:1 4660:1 4860:1 4962:1 4965:1 4988:1 5137:1 5276:1 5507:1 5620:1 5885:1 5925:1 6155:1 6180:1 6191:1 6266:1 6494:1 6965:1 7481:1 7845:1 8020:1 8381:1 #
-0.0054968821062713066685767593355649 4:1 5:1 6:1 7:1 8:1 11:1 17:1 18:1 19:1 24:1 26:1 31:1 33:1 35:1 36:1 38:1 40:1 41:1 45:1 46:1 47:1 59:1 62:1 64:1 75:1 77:1 80:1 87:1 94:1 96:1 98:1 99:1 111:1 120:1 133:1 145:1 152:1 161:1 166:1 167:1 178:1 188:1 192:1 195:1 199:1 207:1 227:1 229:1 230:1 231:1 243:1 252:1 255:1 271:1 274:1 287:1 288:1 296:1 307:1 308:1 309:1 312:1 313:1 319:1 341:1 344:1 357:1 359:1 375:1 406:1 414:1 415:1 434:1 459:1 465:1 486:1 491:1 503:1 505:1 508:1 526:1 548:1 563:1 568:1 571:1 581:1 594:1 599:1 600:1 606:1 614:1 627:1 635:1 641:1 662:1 663:1 695:1 703:1 713:1 737:1 738:1 758:1 763:1 765:1 767:1 771:1 777:1 778:1 785:1 797:1 811:1 816:1 819:1 835:1 837:1 838:1 846:1 876:1 911:1 959:1 960:1 961:1 981:1 989:1 1034:1 1042:1 1080:1 1089:1 1112:1 1135:1 1136:1 1148:1 1149:1 1186:1 1235:1 1281:1 1324:1 1376:1 1403:1 1435:1 1436:1 1462:1 1543:1 1633:1 1650:1 1656:1 1667:1 1736:1 1763:1 1783:1 1863:1 1889:1 1939:1 1998:1 2018:1 2040:1 2055:1 2102:1 2184:1 2199:1 2379:1 2407:1 2514:1 2572:1 2650:1 2742:1 3021:1 3090:1 3200:1 3264:1 3340:1 3777:1 3878:1 4755:1 5157:1 5829:1 6253:1 7236:1 7546:1 8089:1 8265:1 8607:1 9001:1 9083:1 9512:1 9601:1 9680:1 #
-0.0071986290332447296774764922133727 4:1 6:1 7:1 8:1 17:1 24:1 31:1 33:1 35:1 37:1 38:1 40:1 41:1 42:1 45:1 47:1 48:1 50:1 59:1 62:1 64:1 70:1 73:1 75:1 77:1 82:1 87:1 96:1 98:1 107:1 111:1 120:1 129:1 133:1 145:1 146:1 152:1 166:1 167:1 172:1 181:1 192:1 193:1 199:1 201:1 204:1 207:1 210:1 216:1 218:1 230:1 256:1 268:1 284:1 287:1 307:1 318:1 329:1 341:1 349:1 360:1 382:1 388:1 389:1 399:1 400:1 412:1 414:1 415:1 416:1 422:1 423:1 434:1 441:1 448:1 459:1 468:1 480:1 488:1 501:1 510:1 540:1 568:1 573:1 614:1 618:1 630:1 671:1 673:1 684:1 695:1 697:1 705:1 712:1 719:1 720:1 731:1 765:1 776:1 777:1 778:1 795:1 806:1 848:1 859:1 869:1 876:1 883:1 888:1 889:1 899:1 902:1 913:1 918:1 921:1 941:1 942:1 947:1 952:1 956:1 966:1 970:1 981:1 985:1 1011:1 1013:1 1042:1 1075:1 1080:1 1089:1 1140:1 1150:1 1171:1 1235:1 1257:1 1274:1 1305:1 1325:1 1383:1 1409:1 1410:1 1451:1 1458:1 1465:1 1517:1 1530:1 1690:1 1772:1 1825:1 1847:1 1869:1 1948:1 2062:1 2067:1 2084:1 2178:1 2228:1 2402:1 2427:1 2518:1 2566:1 2633:1 2677:1 2821:1 2856:1 2980:1 3292:1 3375:1 3408:1 3531:1 3617:1 3647:1 3839:1 3925:1 3967:1 4168:1 4303:1 4320:1 4457:1 4738:1 4799:1 5037:1 5267:1 5347:1 5543:1 5844:1 5977:1 5987:1 6060:1 6299:1 6413:1 6491:1 6521:1 6629:1 6880:1 7178:1 7315:1 7350:1 8082:1 8460:1 8461:1 8748:1 9269:1 9574:1 #
-0.0029434309737459392677938474491839 6:1 7:1 8:1 19:1 23:1 24:1 27:1 31:1 33:1 35:1 40:1 41:1 45:1 46:1 47:1 51:1 59:1 62:1 64:1 66:1 70:1 73:1 77:1 78:1 80:1 93:1 94:1 96:1 98:1 107:1 111:1 120:1 130:1 133:1 142:1 166:1 167:1 192:1 207:1 230:1 234:1 255:1 256:1 271:1 293:1 302:1 312:1 316:1 341:1 347:1 349:1 355:1 376:1 388:1 390:1 399:1 401:1 406:1 408:1 417:1 420:1 425:1 434:1 461:1 465:1 474:1 481:1 519:1 536:1 548:1 553:1 568:1 586:1 594:1 600:1 606:1 614:1 616:1 627:1 662:1 669:1 690:1 695:1 719:1 758:1 768:1 777:1 789:1 791:1 793:1 809:1 816:1 868:1 882:1 886:1 932:1 991:1 1019:1 1096:1 1097:1 1158:1 1164:1 1185:1 1199:1 1202:1 1210:1 1281:1 1327:1 1340:1 1403:1 1420:1 1434:1 1435:1 1440:1 1452:1 1458:1 1489:1 1523:1 1609:1 1662:1 1667:1 1694:1 1736:1 1801:1 1845:1 1923:1 1966:1 2091:1 2283:1 2337:1 2399:1 2406:1 2408:1 2417:1 2475:1 2480:1 2627:1 2650:1 2664:1 2696:1 2833:1 2880:1 2931:1 2973:1 3005:1 3179:1 3200:1 3242:1 3463:1 3916:1 3962:1 4061:1 4220:1 4305:1 4341:1 4437:1 4666:1 4803:1 4861:1 5034:1 5326:1 5341:1 5516:1 5517:1 5904:1 5916:1 5971:1 6036:1 6120:1 6215:1 6932:1 7121:1 7362:1 7531:1 7571:1 7747:1 8068:1 8584:1 8678:1 #
0.018906467210143967916380347560334 49:1 248:1 326:1 413:1 639:1 1865:1 2031:1 4758:1 #
0.018906467210143967916380347560334 46:1 104:1 326:1 413:1 887:1 898:1 1798:1 2167:1 3596:1 #
0.018906467210143967916380347560334 36:1 326:1 639:1 742:1 750:1 870:1 1865:1 2234:1 2506:1 4758:1 #
0.018906467210143967916380347560334 116:1 248:1 326:1 639:1 750:1 870:1 1865:1 2031:1 2234:1 2598:1 #
-0.018906467210143967916380347560334 5:1 6:1 11:1 15:1 17:1 19:1 36:1 37:1 45:1 47:1 73:1 84:1 107:1 120:1 134:1 138:1 145:1 152:1 157:1 178:1 193:1 198:1 199:1 223:1 227:1 251:1 255:1 296:1 308:1 316:1 330:1 362:1 434:1 508:1 527:1 571:1 594:1 613:1 636:1 770:1 837:1 989:1 1011:1 1112:1 1162:1 1169:1 1186:1 1204:1 1555:1 1834:1 2151:1 2470:1 2715:1 3108:1 3587:1 3669:1 3961:1 4293:1 4869:1 4940:1 5051:1 5927:1 6403:1 6620:1 6911:1 8042:1 8161:1 #
-0.018906467210143967916380347560334 36:1 46:1 326:1 413:1 887:1 898:1 1028:1 1378:1 1798:1 2167:1 4236:1 #
-0.018906467210143967916380347560334 119:1 248:1 326:1 413:1 742:1 870:1 1865:1 2089:1 5060:1 5603:1 #
-0.018906467210143967916380347560334 106:1 141:1 317:1 326:1 504:1 636:1 887:1 1091:1 3584:1 #
-0.00075187444748582403508674332215378 6:1 7:1 18:1 20:1 24:1 48:1 59:1 78:1 87:1 96:1 136:1 194:1 236:1 261:1 287:1 289:1 303:1 370:1 381:1 399:1 434:1 493:1 510:1 557:1 594:1 719:1 757:1 771:1 929:1 943:1 1118:1 1276:1 1294:1 1402:1 1490:1 1736:1 1755:1 1901:1 2269:1 2279:1 2337:1 2656:1 2803:1 2815:1 3203:1 4288:1 4319:1 4334:1 4759:1 5798:1 6329:1 6340:1 7111:1 7187:1 7195:1 7520:1 7775:1 9193:1 #
0.011007794966257783420005011976173 5:1 6:1 7:1 8:1 15:1 19:1 24:1 31:1 33:1 38:1 40:1 41:1 42:1 45:1 47:1 48:1 51:1 62:1 64:1 66:1 68:1 70:1 73:1 75:1 77:1 80:1 94:1 96:1 98:1 100:1 107:1 111:1 120:1 138:1 146:1 152:1 167:1 172:1 188:1 192:1 195:1 204:1 207:1 216:1 218:1 227:1 230:1 231:1 237:1 244:1 261:1 274:1 282:1 293:1 297:1 302:1 310:1 319:1 347:1 348:1 382:1 390:1 393:1 399:1 400:1 413:1 414:1 415:1 418:1 422:1 426:1 428:1 434:1 436:1 468:1 480:1 486:1 488:1 497:1 515:1 519:1 526:1 536:1 541:1 551:1 568:1 572:1 583:1 586:1 608:1 616:1 644:1 662:1 666:1 678:1 688:1 695:1 696:1 714:1 715:1 718:1 719:1 760:1 764:1 783:1 801:1 802:1 809:1 817:1 835:1 861:1 868:1 874:1 876:1 912:1 914:1 918:1 924:1 929:1 966:1 978:1 1010:1 1019:1 1044:1 1045:1 1063:1 1096:1 1097:1 1123:1 1157:1 1171:1 1193:1 1202:1 1211:1 1216:1 1220:1 1247:1 1265:1 1288:1 1322:1 1352:1 1370:1 1417:1 1420:1 1435:1 1443:1 1446:1 1452:1 1471:1 1490:1 1493:1 1512:1 1545:1 1594:1 1650:1 1667:1 1681:1 1776:1 1803:1 1810:1 1854:1 1937:1 1966:1 2062:1 2114:1 2147:1 2187:1 2249:1 2250:1 2344:1 2359:1 2523:1 2697:1 2709:1 2754:1 2800:1 2821:1 2860:1 2876:1 2915:1 2931:1 2944:1 2990:1 2997:1 3000:1 3031:1 3124:1 3155:1 3305:1 3368:1 3550:1 3749:1 3876:1 3897:1 4089:1 4102:1 4171:1 4220:1 4391:1 4649:1 4668:1 4730:1 4852:1 5203:1 5255:1 5400:1 5490:1 6118:1 6184:1 6266:1 6308:1 6368:1 6372:1 6475:1 6494:1 6880:1 7184:1 7204:1 7368:1 7717:1 8105:1 8561:1 9091:1 9157:1 9425:1 9849:1 #
0.01102837353367397063563792869445 5:1 6:1 7:1 11:1 15:1 19:1 24:1 26:1 31:1 33:1 35:1 38:1 39:1 41:1 42:1 45:1 47:1 48:1 51:1 59:1 62:1 64:1 73:1 75:1 77:1 82:1 93:1 96:1 98:1 129:1 130:1 138:1 145:1 146:1 152:1 157:1 178:1 188:1 194:1 198:1 199:1 207:1 216:1 223:1 231:1 234:1 244:1 245:1 265:1 268:1 282:1 287:1 294:1 295:1 297:1 313:1 347:1 357:1 359:1 360:1 362:1 388:1 390:1 402:1 406:1 408:1 414:1 415:1 425:1 428:1 434:1 436:1 465:1 468:1 474:1 508:1 526:1 536:1 568:1 586:1 599:1 600:1 606:1 614:1 619:1 657:1 659:1 663:1 690:1 695:1 715:1 716:1 717:1 718:1 765:1 791:1 793:1 808:1 837:1 838:1 888:1 932:1 942:1 955:1 961:1 978:1 1004:1 1063:1 1084:1 1097:1 1125:1 1150:1 1158:1 1169:1 1208:1 1215:1 1247:1 1276:1 1322:1 1326:1 1340:1 1352:1 1376:1 1423:1 1489:1 1512:1 1523:1 1545:1 1664:1 1680:1 1717:1 1740:1 1940:1 2062:1 2087:1 2103:1 2111:1 2212:1 2216:1 2334:1 2481:1 2543:1 2627:1 2661:1 2664:1 2804:1 2805:1 3083:1 3200:1 3242:1 3270:1 3322:1 3478:1 3572:1 3741:1 4111:1 4192:1 4305:1 5341:1 5487:1 5636:1 5637:1 5725:1 5786:1 5837:1 6147:1 6734:1 7023:1 7347:1 8450:1 9316:1 9723:1 #
0.011304092636963442020103798313357 4:1 5:1 6:1 7:1 8:1 10:1 15:1 19:1 23:1 24:1 26:1 27:1 30:1 31:1 33:1 38:1 39:1 41:1 42:1 45:1 48:1 51:1 54:1 59:1 62:1 65:1 66:1 68:1 69:1 70:1 74:1 75:1 76:1 82:1 87:1 96:1 97:1 98:1 103:1 107:1 108:1 111:1 120:1 122:1 129:1 135:1 136:1 137:1 146:1 150:1 154:1 156:1 173:1 181:1 194:1 196:1 201:1 210:1 220:1 230:1 247:1 251:1 256:1 260:1 271:1 281:1 284:1 287:1 294:1 296:1 324:1 334:1 337:1 338:1 341:1 345:1 348:1 360:1 367:1 385:1 388:1 393:1 395:1 400:1 401:1 434:1 444:1 452:1 500:1 537:1 550:1 554:1 578:1 579:1 580:1 581:1 583:1 592:1 622:1 625:1 626:1 672:1 679:1 684:1 720:1 736:1 740:1 759:1 819:1 823:1 829:1 859:1 861:1 909:1 931:1 939:1 982:1 1001:1 1011:1 1019:1 1027:1 1031:1 1103:1 1107:1 1142:1 1153:1 1180:1 1198:1 1250:1 1271:1 1305:1 1326:1 1348:1 1371:1 1379:1 1387:1 1398:1 1401:1 1408:1 1424:1 1447:1 1459:1 1476:1 1510:1 1516:1 1549:1 1573:1 1580:1 1623:1 1624:1 1658:1 1694:1 1749:1 1770:1 1785:1 1859:1 1864:1 1866:1 1875:1 1890:1 1898:1 1931:1 1933:1 1935:1 1967:1 1971:1 1993:1 2013:1 2050:1 2063:1 2074:1 2101:1 2157:1 2175:1 2260:1 2344:1 2494:1 2500:1 2583:1 2672:1 2859:1 2912:1 2934:1 3022:1 3024:1 3082:1 #
0.0089649132458445926485701704677922 5:1 6:1 7:1 8:1 11:1 15:1 17:1 19:1 23:1 24:1 31:1 33:1 35:1 37:1 38:1 39:1 40:1 41:1 42:1 45:1 46:1 47:1 48:1 50:1 51:1 59:1 66:1 70:1 71:1 73:1 75:1 77:1 80:1 81:1 82:1 87:1 98:1 100:1 107:1 111:1 120:1 138:1 141:1 146:1 152:1 157:1 159:1 165:1 167:1 172:1 188:1 192:1 194:1 195:1 207:1 229:1 230:1 260:1 261:1 269:1 281:1 284:1 312:1 334:1 337:1 345:1 348:1 349:1 360:1 382:1 390:1 399:1 402:1 407:1 412:1 415:1 417:1 425:1 426:1 427:1 434:1 437:1 439:1 480:1 493:1 502:1 515:1 519:1 560:1 568:1 572:1 583:1 591:1 593:1 594:1 614:1 626:1 666:1 678:1 694:1 705:1 726:1 748:1 771:1 772:1 777:1 802:1 861:1 883:1 889:1 893:1 930:1 940:1 956:1 957:1 966:1 981:1 1055:1 1108:1 1133:1 1134:1 1149:1 1203:1 1208:1 1216:1 1227:1 1237:1 1247:1 1299:1 1310:1 1360:1 1385:1 1409:1 1413:1 1429:1 1498:1 1562:1 1665:1 1738:1 1753:1 1765:1 1780:1 1792:1 1810:1 1819:1 1883:1 1901:1 1933:1 1940:1 1953:1 1975:1 1981:1 2108:1 2178:1 2224:1 2316:1 2335:1 2402:1 2487:1 2518:1 2520:1 2633:1 2653:1 2658:1 2695:1 2718:1 2819:1 2876:1 2891:1 2987:1 3116:1 3120:1 3126:1 3173:1 3229:1 3355:1 3540:1 4159:1 4208:1 4325:1 4449:1 4540:1 4559:1 4929:1 5198:1 5472:1 5599:1 5627:1 6418:1 7121:1 7187:1 7680:1 8031:1 8277:1 8428:1 8678:1 9227:1 9572:1 9744:1 9960:1 #
0.0065081608725782707364215795564633 6:1 7:1 8:1 15:1 17:1 19:1 24:1 27:1 28:1 35:1 37:1 38:1 40:1 42:1 45:1 47:1 48:1 50:1 51:1 59:1 60:1 62:1 68:1 69:1 70:1 71:1 73:1 75:1 77:1 78:1 82:1 87:1 94:1 96:1 98:1 111:1 132:1 133:1 138:1 139:1 142:1 152:1 156:1 159:1 161:1 166:1 167:1 182:1 188:1 192:1 195:1 204:1 207:1 215:1 219:1 227:1 230:1 234:1 237:1 238:1 244:1 249:1 255:1 256:1 287:1 294:1 310:1 313:1 319:1 327:1 330:1 332:1 334:1 338:1 344:1 345:1 355:1 357:1 388:1 393:1 396:1 406:1 408:1 412:1 414:1 417:1 418:1 422:1 428:1 434:1 438:1 452:1 465:1 468:1 486:1 488:1 500:1 502:1 526:1 527:1 537:1 568:1 579:1 586:1 599:1 600:1 619:1 651:1 657:1 660:1 688:1 690:1 696:1 716:1 726:1 758:1 768:1 771:1 772:1 777:1 778:1 793:1 797:1 799:1 804:1 808:1 846:1 861:1 863:1 866:1 876:1 882:1 894:1 905:1 915:1 920:1 932:1 955:1 971:1 1010:1 1048:1 1053:1 1057:1 1078:1 1087:1 1088:1 1090:1 1122:1 1140:1 1162:1 1185:1 1199:1 1201:1 1202:1 1215:1 1239:1 1274:1 1275:1 1339:1 1369:1 1402:1 1437:1 1443:1 1482:1 1488:1 1492:1 1543:1 1639:1 1656:1 1666:1 1670:1 1671:1 1679:1 1681:1 1705:1 1723:1 1783:1 1790:1 1792:1 1843:1 1859:1 1901:1 1903:1 1933:1 1987:1 2080:1 2081:1 2091:1 2155:1 2160:1 2213:1 2350:1 2371:1 2376:1 2497:1 2534:1 2708:1 2765:1 2768:1 2782:1 2880:1 2938:1 2950:1 3005:1 3043:1 3132:1 3214:1 3234:1 3434:1 3451:1 3508:1 3514:1 3544:1 3562:1 3858:1 3898:1 3916:1 3967:1 4002:1 4034:1 4097:1 4124:1 4352:1 4375:1 4577:1 4627:1 4646:1 4746:1 4750:1 4802:1 4930:1 4941:1 4958:1 4982:1 5001:1 5585:1 5677:1 5709:1 5943:1 5944:1 6235:1 6797:1 6823:1 6964:1 7117:1 7233:1 7435:1 7871:1 7954:1 8264:1 8404:1 8462:1 8791:1 9133:1 9273:1 9671:1 9800:1 #
-0.0054593498280098512812075206568352 6:1 7:1 8:1 11:1 19:1 24:1 27:1 31:1 33:1 35:1 37:1 38:1 39:1 40:1 41:1 42:1 45:1 46:1 47:1 48:1 50:1 51:1 59:1 64:1 66:1 68:1 70:1 73:1 75:1 77:1 78:1 80:1 82:1 87:1 96:1 97:1 98:1 107:1 111:1 120:1 132:1 139:1 146:1 152:1 156:1 157:1 159:1 166:1 167:1 173:1 188:1 194:1 195:1 197:1 204:1 207:1 213:1 216:1 230:1 246:1 260:1 274:1 282:1 284:1 285:1 287:1 292:1 293:1 297:1 312:1 317:1 319:1 334:1 341:1 345:1 360:1 366:1 370:1 371:1 387:1 388:1 389:1 393:1 399:1 402:1 420:1 425:1 426:1 431:1 434:1 439:1 459:1 463:1 480:1 537:1 563:1 574:1 579:1 581:1 583:1 592:1 600:1 623:1 657:1 662:1 666:1 695:1 713:1 733:1 749:1 753:1 758:1 765:1 768:1 772:1 778:1 783:1 797:1 806:1 813:1 823:1 859:1 866:1 874:1 889:1 924:1 926:1 932:1 942:1 947:1 970:1 978:1 981:1 1022:1 1048:1 1052:1 1057:1 1063:1 1089:1 1090:1 1121:1 1150:1 1157:1 1204:1 1208:1 1210:1 1215:1 1247:1 1254:1 1257:1 1281:1 1301:1 1339:1 1369:1 1394:1 1409:1 1429:1 1436:1 1457:1 1462:1 1493:1 1543:1 1663:1 1665:1 1717:1 1723:1 1760:1 1780:1 1805:1 1813:1 1832:1 1868:1 2026:1 2035:1 2050:1 2067:1 2081:1 2098:1 2114:1 2168:1 2187:1 2192:1 2219:1 2296:1 2316:1 2335:1 2518:1 2583:1 2609:1 2615:1 2653:1 2681:1 2718:1 2741:1 2790:1 2934:1 3041:1 3083:1 3194:1 3325:1 3540:1 3556:1 3729:1 3851:1 3975:1 4282:1 4780:1 5009:1 5040:1 5077:1 5194:1 5251:1 5252:1 5482:1 5654:1 5984:1 6105:1 6277:1 6368:1 6952:1 7023:1 7052:1 7307:1 7335:1 7589:1 7680:1 8390:1 8841:1 8965:1 9031:1 9108:1 #
0.018906467210143967916380347560334 #
-0.0027301824003973600672734445282686 3:1 6:1 7:1 8:1 17:1 19:1 24:1 35:1 37:1 38:1 42:1 45:1 46:1 48:1 51:1 68:1 71:1 73:1 77:1 78:1 80:1 96:1 98:1 111:1 120:1 130:1 141:1 142:1 146:1 181:1 182:1 188:1 192:1 195:1 196:1 197:1 204:1 265:1 274:1 281:1 294:1 319:1 345:1 349:1 360:1 400:1 401:1 412:1 418:1 425:1 428:1 434:1 438:1 452:1 480:1 493:1 501:1 502:1 508:1 519:1 524:1 571:1 591:1 657:1 662:1 705:1 714:1 740:1 746:1 801:1 802:1 861:1 882:1 909:1 915:1 918:1 932:1 950:1 1010:1 1013:1 1053:1 1055:1 1057:1 1122:1 1138:1 1288:1 1350:1 1364:1 1424:1 1454:1 1658:1 1705:1 1760:1 1810:1 1927:1 1957:1 1966:1 2068:1 2164:1 2253:1 2350:1 2382:1 2465:1 2473:1 2534:1 2539:1 2541:1 2721:1 2804:1 2863:1 3175:1 3267:1 3555:1 3592:1 3916:1 4257:1 4348:1 4449:1 4554:1 4566:1 4660:1 4831:1 5524:1 5638:1 5657:1 5834:1 5944:1 6329:1 6936:1 7042:1 7053:1 7184:1 7795:1 8962:1 #
-0.0038075202682325837155730141603271 3:1 6:1 7:1 8:1 17:1 24:1 31:1 33:1 35:1 40:1 41:1 42:1 45:1 62:1 68:1 73:1 77:1 96:1 103:1 107:1 111:1 120:1 122:1 130:1 133:1 146:1 161:1 188:1 192:1 196:1 207:1 237:1 249:1 273:1 324:1 334:1 341:1 344:1 355:1 357:1 400:1 401:1 406:1 415:1 425:1 428:1 430:1 434:1 438:1 471:1 493:1 568:1 586:1 619:1 720:1 846:1 866:1 882:1 914:1 915:1 932:1 1001:1 1053:1 1063:1 1097:1 1140:1 1185:1 1222:1 1241:1 1429:1 1471:1 1532:1 1760:1 1889:1 1912:1 1998:1 2253:1 2480:1 2629:1 2634:1 2661:1 2801:1 2969:1 3187:1 3214:1 3247:1 3327:1 3451:1 3526:1 3559:1 3562:1 3706:1 3916:1 4062:1 4210:1 4273:1 4332:1 4525:1 4731:1 4750:1 5103:1 5111:1 5699:1 6646:1 6984:1 7435:1 8086:1 8698:1 #
-0.0066022808692868494018224367891889 6:1 7:1 8:1 17:1 19:1 24:1 35:1 38:1 40:1 45:1 47:1 48:1 62:1 70:1 73:1 77:1 97:1 98:1 103:1 106:1 108:1 120:1 138:1 139:1 146:1 152:1 159:1 160:1 188:1 195:1 227:1 271:1 287:1 388:1 393:1 400:1 408:1 428:1 434:1 442:1 527:1 543:1 548:1 572:1 576:1 614:1 644:1 662:1 740:1 741:1 760:1 763:1 784:1 835:1 905:1 955:1 1058:1 1131:1 1169:1 1211:1 1330:1 1359:1 1429:1 1493:1 1522:1 1569:1 1670:1 1692:1 1705:1 1803:1 1924:1 2115:1 2642:1 2856:1 2860:1 3495:1 3518:1 3607:1 3631:1 3857:1 3899:1 4102:1 4269:1 4786:1 5779:1 5916:1 6113:1 6244:1 6566:1 7085:1 7548:1 7649:1 7922:1 7984:1 8936:1 9469:1 #
-0.0019533713972673867088902799338257 6:1 7:1 8:1 11:1 13:1 19:1 24:1 25:1 26:1 30:1 31:1 33:1 38:1 39:1 41:1 44:1 45:1 46:1 47:1 48:1 52:1 59:1 60:1 62:1 64:1 67:1 68:1 70:1 71:1 73:1 75:1 77:1 78:1 80:1 81:1 82:1 84:1 87:1 93:1 94:1 96:1 98:1 103:1 111:1 114:1 118:1 120:1 122:1 123:1 130:1 135:1 138:1 140:1 142:1 146:1 153:1 157:1 166:1 167:1 174:1 198:1 202:1 207:1 223:1 227:1 231:1 244:1 245:1 255:1 256:1 261:1 271:1 289:1 294:1 295:1 302:1 310:1 312:1 329:1 348:1 355:1 360:1 376:1 381:1 388:1 397:1 401:1 406:1 408:1 415:1 422:1 427:1 434:1 444:1 456:1 465:1 468:1 474:1 476:1 478:1 488:1 508:1 536:1 543:1 552:1 576:1 581:1 586:1 599:1 600:1 604:1 606:1 659:1 662:1 668:1 669:1 688:1 692:1 694:1 708:1 710:1 717:1 731:1 740:1 758:1 760:1 765:1 771:1 778:1 784:1 808:1 818:1 838:1 861:1 888:1 892:1 893:1 906:1 912:1 919:1 925:1 932:1 971:1 997:1 1048:1 1068:1 1097:1 1099:1 1199:1 1209:1 1257:1 1274:1 1288:1 1310:1 1325:1 1337:1 1338:1 1347:1 1369:1 1375:1 1395:1 1468:1 1587:1 1601:1 1678:1 1701:1 1818:1 1854:1 1869:1 1879:1 1880:1 1911:1 1964:1 1966:1 1992:1 2005:1 2062:1 2136:1 2178:1 2339:1 2358:1 2369:1 2419:1 2518:1 2543:1 2555:1 2624:1 2626:1 2628:1 2638:1 2741:1 2757:1 2800:1 2840:1 2926:1 3010:1 3043:1 3124:1 3177:1 3305:1 3322:1 3380:1 3409:1 3462:1 3466:1 3481:1 3555:1 3618:1 3668:1 3971:1 4068:1 4132:1 4267:1 4305:1 4379:1 4387:1 4407:1 4473:1 4546:1 4781:1 4834:1 4852:1 4880:1 4982:1 5233:1 5274:1 5786:1 5829:1 6351:1 6555:1 6584:1 6913:1 7238:1 7683:1 7879:1 7923:1 8668:1 8695:1 8718:1 8768:1 8782:1 9023:1 9066:1 9176:1 9212:1 9265:1 9659:1 9955:1 #
-0.0018100919342091093770102938620425 6:1 7:1 13:1 42:1 48:1 62:1 68:1 82:1 94:1 103:1 107:1 120:1 146:1 159:1 163:1 252:1 287:1 319:1 362:1 434:1 526:1 560:1 624:1 743:1 803:1 920:1 954:1 1131:1 1240:1 1582:1 2330:1 3120:1 3204:1 3530:1 4300:1 4474:1 4651:1 4811:1 5897:1 6189:1 6643:1 7242:1 7808:1 7816:1 #
0.017765126383280302468925526682142 4:1 6:1 7:1 8:1 17:1 24:1 31:1 33:1 37:1 38:1 42:1 45:1 47:1 48:1 54:1 59:1 61:1 62:1 68:1 73:1 75:1 77:1 78:1 96:1 113:1 120:1 121:1 130:1 131:1 132:1 141:1 156:1 159:1 167:1 177:1 193:1 195:1 205:1 207:1 213:1 232:1 243:1 256:1 277:1 285:1 287:1 299:1 362:1 415:1 425:1 434:1 439:1 468:1 486:1 503:1 520:1 529:1 536:1 619:1 662:1 663:1 671:1 692:1 696:1 717:1 737:1 763:1 784:1 791:1 797:1 823:1 884:1 886:1 925:1 930:1 989:1 1037:1 1159:1 1225:1 1235:1 1244:1 1318:1 1363:1 1364:1 1393:1 1429:1 1452:1 1576:1 1659:1 1720:1 1723:1 1727:1 1744:1 1845:1 1975:1 1987:1 2050:1 2283:1 2293:1 2395:1 2451:1 2539:1 2624:1 2647:1 2729:1 2775:1 3025:1 3061:1 3503:1 3529:1 3933:1 4054:1 4510:1 4553:1 4587:1 4852:1 4896:1 4926:1 5146:1 5412:1 5535:1 5901:1 6105:1 6154:1 6238:1 6368:1 6770:1 6876:1 7433:1 7500:1 7564:1 8059:1 8067:1 8250:1 8568:1 9038:1 9377:1 9463:1 #
0.017048235907377980169474795957285 4:1 6:1 7:1 19:1 24:1 30:1 38:1 45:1 47:1 48:1 54:1 59:1 64:1 77:1 78:1 84:1 87:1 98:1 103:1 107:1 109:1 113:1 120:1 121:1 125:1 141:1 147:1 157:1 161:1 167:1 195:1 198:1 204:1 207:1 230:1 245:1 271:1 277:1 285:1 299:1 305:1 307:1 341:1 388:1 397:1 412:1 418:1 434:1 439:1 468:1 508:1 510:1 526:1 560:1 602:1 609:1 657:1 662:1 769:1 801:1 868:1 886:1 942:1 955:1 997:1 1055:1 1140:1 1162:1 1204:1 1235:1 1242:1 1345:1 1353:1 1364:1 1496:1 1605:1 1727:1 1735:1 1834:1 1878:1 1928:1 2513:1 2547:1 2770:1 2860:1 2881:1 2917:1 3200:1 3510:1 3559:1 3581:1 4040:1 4353:1 4395:1 4957:1 5308:1 6141:1 6171:1 8483:1 9809:1 9927:1 #
0.012879646500932411673501221116567 6:1 7:1 11:1 15:1 17:1 24:1 31:1 33:1 39:1 41:1 45:1 48:1 59:1 62:1 75:1 77:1 93:1 94:1 99:1 107:1 120:1 139:1 166:1 167:1 182:1 195:1 234:1 251:1 257:1 285:1 312:1 336:1 338:1 348:1 350:1 370:1 376:1 388:1 396:1 399:1 431:1 434:1 439:1 469:1 483:1 500:1 527:1 542:1 548:1 563:1 606:1 631:1 643:1 654:1 657:1 692:1 715:1 719:1 748:1 758:1 788:1 808:1 861:1 935:1 956:1 967:1 1022:1 1048:1 1066:1 1070:1 1226:1 1339:1 1429:1 1440:1 1535:1 1556:1 1591:1 1702:1 1783:1 1893:1 2098:1 2143:1 2260:1 2291:1 2514:1 2545:1 2640:1 2642:1 2766:1 2807:1 2839:1 2843:1 3336:1 3346:1 3465:1 3487:1 3513:1 3590:1 3756:1 3916:1 4509:1 4890:1 4895:1 5237:1 5421:1 5447:1 6061:1 6135:1 6136:1 7203:1 7366:1 7546:1 8136:1 8515:1 8633:1 8946:1 9142:1 9531:1 9804:1 #
0.018906467210143967916380347560334 4:1 5:1 6:1 7:1 24:1 30:1 31:1 33:1 36:1 42:1 47:1 48:1 59:1 80:1 84:1 87:1 113:1 120:1 122:1 128:1 148:1 156:1 165:1 179:1 282:1 286:1 288:1 300:1 315:1 393:1 394:1 434:1 481:1 501:1 508:1 522:1 523:1 529:1 570:1 624:1 704:1 742:1 758:1 769:1 788:1 846:1 857:1 878:1 887:1 918:1 1022:1 1041:1 1050:1 1051:1 1061:1 1138:1 1197:1 1353:1 1424:1 1429:1 1505:1 1618:1 1623:1 1872:1 1919:1 1971:1 2126:1 2652:1 2740:1 2948:1 3170:1 3192:1 3312:1 3366:1 3657:1 3682:1 4043:1 5047:1 5117:1 5679:1 6126:1 6732:1 7095:1 8293:1 8372:1 9148:1 #
0.018906467210143967916380347560334 4:1 5:1 6:1 31:1 33:1 36:1 47:1 59:1 78:1 80:1 82:1 86:1 87:1 113:1 120:1 122:1 134:1 147:1 154:1 197:1 210:1 249:1 286:1 288:1 345:1 360:1 434:1 529:1 560:1 579:1 615:1 624:1 742:1 788:1 1020:1 1413:1 1578:1 2824:1 2998:1 3479:1 3657:1 6987:1 9372:1 #
-0.018906467210143967916380347560334 6:1 7:1 8:1 17:1 42:1 45:1 47:1 48:1 54:1 61:1 64:1 75:1 96:1 107:1 121:1 131:1 141:1 159:1 161:1 177:1 193:1 195:1 205:1 213:1 243:1 285:1 309:1 362:1 425:1 434:1 439:1 486:1 503:1 520:1 529:1 671:1 675:1 690:1 692:1 717:1 763:1 784:1 797:1 820:1 823:1 884:1 989:1 1037:1 1131:1 1159:1 1244:1 1363:1 1364:1 1452:1 1573:1 1576:1 1659:1 1723:1 1727:1 1804:1 1979:1 1987:1 2283:1 2340:1 2395:1 2840:1 3529:1 4162:1 4254:1 4553:1 5412:1 5527:1 6154:1 6238:1 6770:1 6876:1 7564:1 7942:1 8250:1 9038:1 9261:1 9463:1 #
-0.018906467210143967916380347560334 4:1 5:1 6:1 7:1 17:1 26:1 47:1 48:1 80:1 82:1 86:1 87:1 98:1 111:1 113:1 134:1 167:1 177:1 192:1 195:1 205:1 213:1 232:1 251:1 288:1 309:1 326:1 382:1 434:1 439:1 481:1 501:1 568:1 570:1 585:1 624:1 685:1 750:1 905:1 918:1 976:1 1084:1 1090:1 1183:1 1384:1 1554:1 1648:1 1727:1 1939:1 1968:1 2451:1 3023:1 3110:1 3260:1 3429:1 3465:1 3658:1 3833:1 4758:1 5357:1 5741:1 5874:1 7025:1 9872:1 9930:1 #
-0.01617692091278554594735439309261 4:1 6:1 7:1 17:1 23:1 31:1 33:1 38:1 48:1 59:1 80:1 97:1 113:1 122:1 126:1 145:1 156:1 157:1 179:1 193:1 198:1 199:1 224:1 233:1 270:1 277:1 311:1 348:1 391:1 398:1 434:1 450:1 459:1 481:1 560:1 604:1 699:1 704:1 735:1 738:1 774:1 856:1 865:1 918:1 1005:1 1014:1 1051:1 1113:1 1175:1 1267:1 1433:1 1614:1 1836:1 1843:1 2054:1 2333:1 2425:1 2717:1 2821:1 2865:1 4489:1 5079:1 8913:1 #
-0.0083063965784533847630521918858904 46:1 49:1 842:1 2153:1 2342:1 7923:1 #
0.00024177421084864935112851425103031 4:1 6:1 7:1 15:1 17:1 19:1 24:1 26:1 31:1 33:1 37:1 38:1 40:1 41:1 42:1 45:1 46:1 47:1 48:1 51:1 52:1 59:1 62:1 64:1 68:1 70:1 71:1 73:1 75:1 76:1 77:1 87:1 98:1 99:1 104:1 107:1 111:1 114:1 116:1 117:1 120:1 137:1 139:1 142:1 145:1 146:1 159:1 165:1 166:1 188:1 192:1 195:1 199:1 204:1 207:1 256:1 274:1 287:1 299:1 309:1 310:1 318:1 329:1 334:1 349:1 353:1 360:1 366:1 408:1 414:1 416:1 417:1 418:1 422:1 425:1 428:1 434:1 438:1 441:1 467:1 477:1 487:1 508:1 514:1 543:1 563:1 594:1 608:1 616:1 671:1 675:1 695:1 705:1 727:1 753:1 758:1 772:1 776:1 778:1 802:1 806:1 820:1 882:1 894:1 905:1 913:1 921:1 932:1 933:1 973:1 981:1 1002:1 1010:1 1031:1 1042:1 1048:1 1057:1 1070:1 1074:1 1086:1 1088:1 1122:1 1135:1 1138:1 1146:1 1159:1 1172:1 1185:1 1214:1 1241:1 1254:1 1274:1 1302:1 1327:1 1355:1 1360:1 1362:1 1400:1 1441:1 1471:1 1484:1 1528:1 1569:1 1645:1 1662:1 1732:1 1803:1 1805:1 1816:1 1824:1 1854:1 1903:1 1908:1 1927:1 1968:1 2014:1 2044:1 2088:1 2110:1 2114:1 2145:1 2148:1 2151:1 2154:1 2339:1 2378:1 2482:1 2596:1 2687:1 2782:1 2856:1 2914:1 2931:1 3007:1 3105:1 3152:1 3203:1 3212:1 3341:1 3451:1 3490:1 3549:1 3564:1 3610:1 3707:1 3744:1 3876:1 3881:1 3916:1 3980:1 4001:1 4093:1 4247:1 4257:1 4374:1 4527:1 4577:1 4646:1 4799:1 4931:1 5033:1 5273:1 5487:1 5943:1 6015:1 6199:1 6657:1 7174:1 7270:1 7439:1 7451:1 8545:1 8651:1 8680:1 9302:1 #
0.0028809863678220764930670849679473 6:1 7:1 8:1 11:1 15:1 17:1 19:1 24:1 31:1 33:1 35:1 37:1 38:1 39:1 40:1 41:1 45:1 46:1 47:1 48:1 50:1 51:1 59:1 64:1 66:1 70:1 75:1 77:1 80:1 87:1 94:1 96:1 111:1 120:1 135:1 138:1 139:1 142:1 152:1 159:1 160:1 167:1 179:1 187:1 188:1 192:1 194:1 196:1 204:1 230:1 234:1 256:1 257:1 277:1 296:1 310:1 312:1 338:1 341:1 357:1 370:1 388:1 400:1 402:1 414:1 417:1 420:1 426:1 427:1 434:1 468:1 480:1 487:1 493:1 501:1 508:1 521:1 526:1 536:1 537:1 548:1 560:1 566:1 579:1 619:1 644:1 662:1 666:1 667:1 713:1 727:1 741:1 748:1 758:1 763:1 767:1 776:1 778:1 783:1 795:1 804:1 816:1 848:1 869:1 882:1 884:1 892:1 909:1 929:1 940:1 981:1 994:1 1001:1 1063:1 1089:1 1123:1 1140:1 1142:1 1175:1 1204:1 1211:1 1242:1 1247:1 1299:1 1339:1 1350:1 1361:1 1384:1 1409:1 1429:1 1454:1 1457:1 1530:1 1533:1 1600:1 1623:1 1655:1 1717:1 1735:1 1760:1 1805:1 1806:1 1854:1 1868:1 1869:1 1883:1 1927:1 1943:1 1944:1 1994:1 2010:1 2016:1 2039:1 2050:1 2135:1 2162:1 2215:1 2247:1 2368:1 2380:1 2420:1 2421:1 2424:1 2518:1 2534:1 2566:1 2596:1 2649:1 2653:1 2696:1 2880:1 2896:1 2956:1 3045:1 3185:1 3207:1 3270:1 3274:1 3297:1 3363:1 3423:1 3431:1 3571:1 3959:1 4152:1 4540:1 4554:1 4571:1 4809:1 4810:1 4916:1 5007:1 5373:1 5531:1 5840:1 6227:1 6416:1 7392:1 7695:1 8133:1 8277:1 8809:1 9157:1 9211:1 9902:1 #
0.0065768099725512898026669184048387 4:1 5:1 6:1 7:1 15:1 17:1 19:1 24:1 31:1 33:1 38:1 40:1 41:1 42:1 45:1 47:1 48:1 50:1 54:1 59:1 62:1 73:1 78:1 81:1 82:1 87:1 96:1 98:1 107:1 111:1 120:1 121:1 129:1 145:1 146:1 152:1 154:1 155:1 156:1 159:1 177:1 181:1 192:1 196:1 197:1 199:1 202:1 205:1 216:1 218:1 230:1 249:1 251:1 260:1 265:1 286:1 301:1 310:1 312:1 318:1 329:1 334:1 341:1 360:1 372:1 382:1 389:1 393:1 400:1 422:1 425:1 426:1 434:1 436:1 441:1 448:1 459:1 467:1 474:1 501:1 510:1 514:1 521:1 537:1 540:1 543:1 551:1 568:1 595:1 630:1 636:1 665:1 671:1 719:1 731:1 741:1 760:1 765:1 776:1 778:1 782:1 789:1 809:1 819:1 835:1 854:1 855:1 874:1 912:1 952:1 981:1 985:1 986:1 1013:1 1022:1 1055:1 1074:1 1080:1 1083:1 1089:1 1129:1 1149:1 1150:1 1171:1 1208:1 1214:1 1237:1 1279:1 1409:1 1410:1 1422:1 1436:1 1447:1 1468:1 1530:1 1669:1 1738:1 1804:1 1837:1 1912:1 1913:1 1940:1 2056:1 2067:1 2121:1 2124:1 2257:1 2272:1 2450:1 2484:1 2518:1 2696:1 2862:1 2872:1 3077:1 3227:1 3229:1 3316:1 3375:1 3462:1 3556:1 3698:1 3803:1 3808:1 3839:1 3897:1 3925:1 3998:1 4034:1 4189:1 4243:1 4363:1 4727:1 4799:1 5127:1 5181:1 5347:1 5768:1 6010:1 6060:1 6172:1 6299:1 6453:1 6785:1 6988:1 6997:1 7537:1 7834:1 7886:1 8188:1 8363:1 8376:1 8460:1 8461:1 8605:1 8809:1 9408:1 #
0.0081041004894931017998871425334073 5:1 6:1 7:1 8:1 15:1 19:1 24:1 27:1 35:1 37:1 39:1 40:1 41:1 42:1 45:1 47:1 48:1 50:1 51:1 52:1 59:1 68:1 70:1 73:1 76:1 77:1 78:1 80:1 82:1 86:1 87:1 93:1 96:1 97:1 98:1 100:1 107:1 109:1 111:1 120:1 122:1 129:1 142:1 146:1 152:1 167:1 172:1 188:1 193:1 195:1 204:1 218:1 234:1 251:1 255:1 256:1 282:1 310:1 312:1 317:1 329:1 334:1 338:1 345:1 347:1 349:1 360:1 369:1 370:1 382:1 387:1 393:1 414:1 418:1 420:1 426:1 427:1 428:1 434:1 438:1 442:1 452:1 480:1 488:1 502:1 515:1 548:1 614:1 619:1 627:1 657:1 666:1 684:1 705:1 714:1 715:1 719:1 736:1 740:1 758:1 763:1 768:1 801:1 802:1 809:1 816:1 866:1 883:1 926:1 932:1 942:1 954:1 1010:1 1045:1 1048:1 1057:1 1105:1 1123:1 1125:1 1140:1 1158:1 1197:1 1208:1 1214:1 1222:1 1229:1 1257:1 1258:1 1275:1 1281:1 1322:1 1350:1 1422:1 1434:1 1500:1 1512:1 1535:1 1545:1 1650:1 1663:1 1670:1 1705:1 1736:1 1805:1 1981:1 2011:1 2128:1 2184:1 2194:1 2219:1 2286:1 2334:1 2350:1 2359:1 2478:1 2584:1 2615:1 2697:1 2786:1 2899:1 2914:1 2938:1 3000:1 3041:1 3168:1 3214:1 3216:1 3234:1 3262:1 3284:1 3346:1 3523:1 3541:1 3655:1 3704:1 3706:1 3776:1 3852:1 4276:1 4308:1 4524:1 4710:1 4852:1 5009:1 5172:1 5261:1 5415:1 5515:1 5696:1 5939:1 6302:1 6882:1 7127:1 #
-0.0064117961505625997026269757839145 4:1 5:1 6:1 7:1 11:1 17:1 19:1 24:1 31:1 33:1 37:1 39:1 41:1 42:1 47:1 48:1 50:1 51:1 54:1 59:1 75:1 76:1 77:1 78:1 81:1 82:1 84:1 86:1 87:1 98:1 113:1 120:1 122:1 123:1 124:1 129:1 141:1 145:1 154:1 165:1 167:1 173:1 177:1 181:1 197:1 199:1 202:1 204:1 205:1 207:1 210:1 216:1 249:1 256:1 268:1 274:1 281:1 282:1 288:1 292:1 293:1 316:1 327:1 334:1 338:1 341:1 345:1 349:1 356:1 366:1 382:1 388:1 389:1 393:1 401:1 414:1 415:1 423:1 427:1 434:1 474:1 476:1 480:1 486:1 487:1 508:1 510:1 512:1 514:1 537:1 543:1 548:1 552:1 566:1 579:1 581:1 592:1 595:1 615:1 626:1 663:1 665:1 673:1 719:1 758:1 760:1 763:1 771:1 776:1 801:1 854:1 861:1 876:1 915:1 921:1 926:1 947:1 966:1 986:1 992:1 1063:1 1099:1 1135:1 1170:1 1229:1 1242:1 1254:1 1266:1 1267:1 1284:1 1302:1 1325:1 1350:1 1430:1 1436:1 1465:1 1476:1 1488:1 1533:1 1561:1 1578:1 1662:1 1681:1 1738:1 1901:1 1953:1 2071:1 2183:1 2423:1 2523:1 2555:1 2728:1 3369:1 3466:1 3479:1 3733:1 3937:1 4028:1 4074:1 4103:1 4152:1 4485:1 4543:1 4704:1 4729:1 4853:1 5063:1 5768:1 6060:1 6985:1 7129:1 7498:1 7962:1 #
-0.0049431728327738377534728009266018 5:1 6:1 7:1 8:1 11:1 15:1 19:1 21:1 23:1 24:1 26:1 30:1 35:1 37:1 38:1 39:1 40:1 41:1 45:1 47:1 48:1 51:1 52:1 59:1 62:1 63:1 65:1 66:1 70:1 72:1 73:1 75:1 78:1 80:1 82:1 87:1 93:1 94:1 98:1 99:1 111:1 120:1 123:1 125:1 127:1 128:1 134:1 139:1 140:1 142:1 146:1 148:1 152:1 157:1 164:1 165:1 172:1 181:1 182:1 185:1 192:1 196:1 207:1 225:1 230:1 251:1 257:1 260:1 267:1 269:1 274:1 287:1 289:1 293:1 296:1 302:1 304:1 312:1 318:1 327:1 330:1 334:1 338:1 349:1 352:1 356:1 370:1 376:1 379:1 386:1 401:1 402:1 403:1 408:1 410:1 412:1 422:1 425:1 434:1 437:1 438:1 463:1 469:1 477:1 487:1 491:1 510:1 514:1 515:1 543:1 559:1 560:1 583:1 594:1 607:1 608:1 610:1 631:1 640:1 657:1 658:1 666:1 671:1 678:1 695:1 712:1 719:1 748:1 758:1 772:1 789:1 798:1 819:1 854:1 876:1 891:1 912:1 918:1 930:1 931:1 939:1 947:1 960:1 992:1 994:1 995:1 998:1 1086:1 1089:1 1099:1 1130:1 1134:1 1193:1 1208:1 1260:1 1265:1 1276:1 1348:1 1368:1 1382:1 1409:1 1415:1 1444:1 1447:1 1459:1 1511:1 1523:1 1579:1 1616:1 1617:1 1663:1 1686:1 1702:1 1716:1 1748:1 1753:1 1755:1 1780:1 1791:1 1856:1 1913:1 1945:1 1954:1 1962:1 2081:1 2098:1 2214:1 2247:1 2270:1 2316:1 2335:1 2338:1 2352:1 2402:1 2518:1 2603:1 2617:1 2619:1 2757:1 2771:1 2931:1 3237:1 3270:1 3314:1 3327:1 3361:1 3497:1 3746:1 3861:1 3863:1 3876:1 3909:1 3937:1 4010:1 4325:1 4797:1 5280:1 5366:1 5443:1 5627:1 5752:1 5815:1 5922:1 5976:1 6034:1 6042:1 6061:1 6320:1 6407:1 6560:1 7529:1 7786:1 7928:1 8290:1 9364:1 9443:1 9487:1 9960:1 9974:1 #
-0.0041003628804942293673008180121542 36:1 116:1 248:1 870:1 963:1 2506:1 2598:1 2830:1 3455:1 8754:1 #
-0.0027645595655138850525733840157727 5:1 6:1 7:1 8:1 10:1 11:1 15:1 18:1 19:1 24:1 26:1 27:1 30:1 35:1 37:1 38:1 41:1 45:1 48:1 50:1 51:1 59:1 62:1 63:1 64:1 65:1 66:1 70:1 72:1 74:1 77:1 78:1 80:1 93:1 99:1 100:1 101:1 120:1 139:1 145:1 146:1 152:1 160:1 166:1 177:1 178:1 182:1 188:1 192:1 198:1 199:1 204:1 208:1 213:1 216:1 223:1 225:1 251:1 257:1 260:1 268:1 280:1 285:1 287:1 293:1 296:1 304:1 307:1 319:1 334:1 338:1 349:1 357:1 360:1 398:1 401:1 403:1 426:1 433:1 434:1 438:1 448:1 469:1 475:1 483:1 487:1 488:1 496:1 505:1 514:1 521:1 527:1 548:1 560:1 576:1 583:1 593:1 607:1 610:1 613:1 617:1 619:1 631:1 640:1 642:1 644:1 654:1 671:1 679:1 686:1 698:1 703:1 705:1 719:1 727:1 748:1 754:1 758:1 772:1 778:1 801:1 802:1 805:1 819:1 822:1 849:1 873:1 909:1 939:1 960:1 965:1 976:1 994:1 998:1 1002:1 1082:1 1086:1 1105:1 1133:1 1135:1 1231:1 1260:1 1359:1 1386:1 1409:1 1411:1 1413:1 1415:1 1429:1 1437:1 1457:1 1459:1 1463:1 1482:1 1484:1 1515:1 1616:1 1617:1 1651:1 1677:1 1702:1 1711:1 1755:1 1769:1 1808:1 1856:1 1885:1 2020:1 2043:1 2065:1 2151:1 2155:1 2201:1 2214:1 2244:1 2255:1 2257:1 2287:1 2292:1 2294:1 2319:1 2377:1 2413:1 2467:1 2548:1 2580:1 2675:1 2707:1 2771:1 2804:1 2822:1 2880:1 2960:1 2993:1 3185:1 3216:1 3248:1 3382:1 3481:1 3497:1 3506:1 3611:1 3734:1 3746:1 4015:1 4084:1 4121:1 4129:1 4309:1 4352:1 4592:1 4712:1 4882:1 5255:1 5315:1 5353:1 5419:1 5922:1 6042:1 6320:1 6411:1 7245:1 7330:1 7726:1 8312:1 9378:1 #
-0.0030794203878944498807557206276897 46:1 102:1 162:1 262:1 504:1 621:1 790:1 2006:1 3383:1 5118:1 #
-0.0051805204698978715716073395469721 6:1 7:1 31:1 33:1 38:1 42:1 45:1 47:1 71:1 76:1 80:1 82:1 120:1 128:1 132:1 146:1 155:1 156:1 165:1 169:1 174:1 181:1 193:1 266:1 276:1 277:1 282:1 316:1 337:1 343:1 370:1 389:1 396:1 400:1 404:1 434:1 437:1 467:1 608:1 624:1 742:1 900:1 985:1 1160:1 1229:1 1274:1 1305:1 1437:1 1546:1 2112:1 3965:1 4519:1 7316:1 7475:1 #
0.018906467210143967916380347560334 6:1 7:1 8:1 15:1 19:1 23:1 24:1 26:1 31:1 33:1 39:1 46:1 50:1 59:1 70:1 73:1 78:1 93:1 96:1 97:1 98:1 108:1 111:1 138:1 146:1 196:1 216:1 223:1 252:1 282:1 284:1 292:1 297:1 319:1 347:1 348:1 355:1 390:1 415:1 425:1 434:1 465:1 474:1 481:1 515:1 572:1 586:1 594:1 610:1 659:1 669:1 690:1 778:1 793:1 885:1 886:1 914:1 1058:1 1069:1 1122:1 1131:1 1140:1 1151:1 1199:1 1208:1 1310:1 1344:1 1475:1 1489:1 1492:1 1542:1 1543:1 1553:1 1665:1 1667:1 1693:1 1835:1 1854:1 2219:1 2318:1 2359:1 2539:1 2567:1 2746:1 2853:1 2909:1 2944:1 2990:1 3167:1 3217:1 3294:1 3360:1 3469:1 3675:1 3731:1 3896:1 4023:1 4463:1 4993:1 5396:1 5437:1 5573:1 6284:1 6413:1 6665:1 #
0.018906467210143967916380347560334 46:1 104:1 106:1 461:1 1174:1 2615:1 3584:1 4496:1 #
0.018906467210143967916380347560334 6:1 7:1 8:1 15:1 18:1 19:1 23:1 24:1 28:1 46:1 48:1 58:1 68:1 70:1 77:1 80:1 82:1 103:1 107:1 108:1 111:1 120:1 123:1 130:1 135:1 138:1 170:1 178:1 190:1 227:1 306:1 319:1 329:1 330:1 344:1 352:1 400:1 433:1 434:1 477:1 500:1 505:1 508:1 510:1 514:1 519:1 527:1 557:1 561:1 568:1 597:1 662:1 666:1 669:1 685:1 694:1 748:1 789:1 797:1 861:1 909:1 1019:1 1021:1 1030:1 1165:1 1227:1 1243:1 1348:1 1428:1 1467:1 1470:1 1617:1 1631:1 1685:1 1710:1 1900:1 2115:1 2130:1 2331:1 2352:1 2381:1 2433:1 2488:1 2609:1 2674:1 2819:1 3052:1 3181:1 3585:1 3949:1 4179:1 4268:1 4473:1 4747:1 4902:1 4973:1 5840:1 6267:1 6667:1 7190:1 8193:1 #
0.018906467210143967916380347560334 46:1 104:1 106:1 845:1 962:1 999:1 9238:1 #
0.018906467210143967916380347560334 36:1 46:1 104:1 248:1 845:1 1270:1 1626:1 2064:1 #
-0.018906467210143967916380347560334 6:1 15:1 19:1 23:1 24:1 46:1 59:1 74:1 87:1 97:1 120:1 179:1 224:1 281:1 334:1 373:1 434:1 501:1 591:1 653:1 721:1 885:1 886:1 995:1 1029:1 1191:1 1429:1 1760:1 1835:1 1987:1 2282:1 3387:1 4167:1 4610:1 5436:1 7253:1 8316:1 8892:1 9772:1 9931:1 #
-0.010980971402533113573385392669479 46:1 49:1 265:1 1553:1 2027:1 5725:1 8408:1 #
-0.00089785156742824509014389011696267 2:1 24:1 25:1 34:1 56:1 71:1 87:1 123:1 143:1 235:1 261:1 323:1 397:1 421:1 434:1 478:1 493:1 736:1 762:1 793:1 865:1 920:1 964:1 1015:1 1058:1 1081:1 1286:1 1438:1 1584:1 1596:1 1854:1 1963:1 2432:1 2651:1 3060:1 3067:1 3272:1 3699:1 3987:1 4189:1 4451:1 5784:1 6027:1 6109:1 6110:1 6452:1 6544:1 8410:1 9964:1 #
-0.011755860510117404835184196087994 46:1 49:1 265:1 638:1 1307:1 1455:1 1744:1 3469:1 3958:1 #
-0.0010269197353402154202633989044102 6:1 7:1 18:1 20:1 24:1 28:1 32:1 42:1 45:1 47:1 62:1 78:1 87:1 100:1 102:1 112:1 120:1 144:1 146:1 166:1 178:1 212:1 230:1 232:1 235:1 236:1 252:1 279:1 296:1 307:1 434:1 439:1 501:1 505:1 715:1 890:1 952:1 981:1 1030:1 1063:1 1154:1 1211:1 1276:1 1352:1 1362:1 1395:1 1562:1 1611:1 1617:1 2152:1 2374:1 2430:1 2620:1 2631:1 2650:1 2823:1 2848:1 2850:1 3033:1 3576:1 3950:1 4000:1 4089:1 4247:1 4493:1 5407:1 7778:1 7793:1 8146:1 9204:1 9259:1 #
0.0068651333595528690745268818318436 4:1 6:1 7:1 11:1 15:1 19:1 24:1 26:1 37:1 41:1 42:1 45:1 46:1 48:1 49:1 52:1 64:1 73:1 75:1 80:1 82:1 87:1 94:1 96:1 104:1 107:1 120:1 139:1 145:1 152:1 161:1 170:1 172:1 181:1 190:1 194:1 197:1 199:1 201:1 202:1 210:1 230:1 264:1 270:1 287:1 293:1 302:1 312:1 337:1 345:1 350:1 370:1 372:1 382:1 393:1 418:1 434:1 501:1 527:1 563:1 577:1 580:1 581:1 671:1 712:1 719:1 758:1 771:1 863:1 886:1 918:1 991:1 1013:1 1137:1 1146:1 1197:1 1228:1 1265:1 1267:1 1273:1 1362:1 1381:1 1468:1 1520:1 1532:1 1542:1 1653:1 1672:1 1686:1 1866:1 1901:1 1909:1 2096:1 2126:1 2395:1 2396:1 2443:1 2491:1 2633:1 2740:1 2994:1 3254:1 3339:1 3366:1 3816:1 3842:1 4315:1 4875:1 5040:1 5448:1 5457:1 6438:1 7546:1 7807:1 9666:1 #
0.018906467210143967916380347560334 5:1 6:1 7:1 19:1 24:1 36:1 38:1 45:1 48:1 50:1 59:1 77:1 80:1 103:1 106:1 111:1 113:1 120:1 134:1 136:1 146:1 159:1 166:1 192:1 194:1 251:1 287:1 312:1 318:1 324:1 329:1 330:1 334:1 357:1 389:1 394:1 414:1 434:1 493:1 514:1 536:1 543:1 568:1 571:1 595:1 600:1 673:1 710:1 719:1 740:1 760:1 771:1 806:1 868:1 888:1 898:1 913:1 918:1 942:1 946:1 985:1 991:1 992:1 1011:1 1013:1 1055:1 1063:1 1065:1 1107:1 1118:1 1188:1 1231:1 1274:1 1305:1 1372:1 1410:1 1429:1 1441:1 1635:1 1944:1 1997:1 2037:1 2188:1 2212:1 2272:1 2395:1 2422:1 2466:1 2792:1 3009:1 3083:1 3166:1 3308:1 3776:1 3825:1 3870:1 3886:1 4339:1 5454:1 5507:1 5798:1 5829:1 5916:1 6198:1 6324:1 6653:1 6663:1 7413:1 8144:1 8345:1 8807:1 #
-0.011970737839175652969525565083586 4:1 7:1 19:1 24:1 26:1 46:1 48:1 51:1 64:1 66:1 120:1 124:1 142:1 161:1 230:1 232:1 234:1 264:1 311:1 326:1 372:1 434:1 449:1 503:1 508:1 719:1 835:1 845:1 863:1 911:1 1238:1 1548:1 2036:1 2562:1 2618:1 2816:1 3596:1 6188:1 9860:1 #
0.017392785350979437369867142137991 4:1 5:1 6:1 7:1 8:1 15:1 17:1 19:1 24:1 35:1 37:1 38:1 39:1 40:1 42:1 48:1 54:1 59:1 73:1 78:1 80:1 81:1 82:1 87:1 91:1 98:1 106:1 120:1 132:1 141:1 145:1 146:1 154:1 156:1 172:1 181:1 192:1 193:1 196:1 197:1 199:1 216:1 260:1 286:1 288:1 310:1 316:1 318:1 341:1 345:1 348:1 388:1 389:1 401:1 412:1 414:1 434:1 441:1 459:1 467:1 540:1 566:1 578:1 579:1 587:1 599:1 697:1 712:1 727:1 731:1 758:1 763:1 854:1 859:1 861:1 942:1 945:1 947:1 985:1 995:1 1042:1 1170:1 1211:1 1244:1 1266:1 1355:1 1619:1 1703:1 1736:1 1928:1 1957:1 1987:1 2188:1 2255:1 2646:1 3034:1 3366:1 3392:1 3479:1 3646:1 4129:1 5837:1 7314:1 7941:1 9269:1 #
-0.0041354591132160755870272872414262 4:1 6:1 7:1 8:1 15:1 17:1 24:1 30:1 35:1 38:1 39:1 41:1 42:1 44:1 45:1 47:1 48:1 51:1 54:1 62:1 64:1 67:1 68:1 69:1 70:1 73:1 75:1 76:1 77:1 80:1 82:1 87:1 91:1 96:1 98:1 99:1 103:1 107:1 108:1 120:1 122:1 124:1 129:1 130:1 132:1 133:1 136:1 137:1 138:1 141:1 146:1 152:1 156:1 167:1 170:1 173:1 181:1 193:1 194:1 201:1 202:1 204:1 213:1 216:1 219:1 227:1 230:1 231:1 251:1 260:1 273:1 277:1 282:1 287:1 295:1 297:1 302:1 310:1 316:1 329:1 330:1 344:1 348:1 360:1 362:1 375:1 388:1 393:1 412:1 414:1 423:1 425:1 427:1 434:1 436:1 437:1 438:1 439:1 442:1 444:1 448:1 488:1 491:1 497:1 499:1 510:1 536:1 548:1 552:1 581:1 593:1 594:1 600:1 602:1 625:1 643:1 673:1 675:1 686:1 692:1 696:1 706:1 737:1 758:1 765:1 771:1 773:1 778:1 789:1 802:1 809:1 848:1 869:1 874:1 881:1 892:1 909:1 921:1 922:1 929:1 935:1 951:1 967:1 972:1 974:1 1003:1 1013:1 1024:1 1028:1 1048:1 1062:1 1069:1 1096:1 1104:1 1134:1 1174:1 1244:1 1281:1 1309:1 1358:1 1364:1 1400:1 1428:1 1434:1 1444:1 1471:1 1478:1 1490:1 1497:1 1500:1 1579:1 1610:1 1638:1 1662:1 1672:1 1690:1 1737:1 1763:1 1786:1 1803:1 1804:1 1809:1 1852:1 1854:1 1855:1 1878:1 1886:1 1908:1 1909:1 1927:1 1928:1 1964:1 2030:1 2055:1 2146:1 2175:1 2194:1 2253:1 2255:1 2309:1 2450:1 2548:1 2633:1 2706:1 2747:1 2845:1 2899:1 2927:1 3104:1 3134:1 3141:1 3188:1 3194:1 3270:1 3271:1 3484:1 3522:1 3570:1 3598:1 3714:1 4021:1 4123:1 4167:1 4195:1 4211:1 4252:1 4533:1 4696:1 4757:1 4879:1 5050:1 5077:1 5284:1 5406:1 5442:1 5796:1 5882:1 5953:1 6022:1 6054:1 6239:1 6724:1 6729:1 6894:1 7003:1 7150:1 7468:1 7762:1 7903:1 8285:1 8416:1 8794:1 8852:1 8989:1 9024:1 9555:1 #
-0.018906467210143967916380347560334 4:1 5:1 6:1 8:1 17:1 19:1 30:1 35:1 39:1 50:1 75:1 82:1 87:1 106:1 154:1 173:1 193:1 210:1 286:1 345:1 434:1 665:1 907:1 1266:1 1572:1 1703:1 3584:1 3772:1 #
-0.0020651931254924136595330086407785 4:1 5:1 6:1 7:1 24:1 31:1 33:1 35:1 38:1 39:1 41:1 48:1 50:1 51:1 59:1 62:1 68:1 69:1 72:1 75:1 77:1 78:1 80:1 82:1 84:1 87:1 89:1 96:1 98:1 108:1 120:1 127:1 128:1 129:1 135:1 153:1 156:1 159:1 165:1 166:1 167:1 173:1 182:1 192:1 193:1 194:1 204:1 210:1 227:1 234:1 237:1 245:1 251:1 256:1 271:1 274:1 277:1 281:1 284:1 287:1 295:1 302:1 306:1 310:1 312:1 314:1 329:1 338:1 345:1 348:1 360:1 370:1 381:1 388:1 392:1 393:1 399:1 413:1 415:1 425:1 428:1 434:1 438:1 493:1 501:1 502:1 508:1 510:1 529:1 540:1 553:1 568:1 599:1 629:1 640:1 657:1 668:1 676:1 679:1 694:1 706:1 710:1 712:1 719:1 732:1 760:1 764:1 771:1 784:1 804:1 817:1 855:1 857:1 877:1 892:1 894:1 913:1 918:1 926:1 933:1 942:1 946:1 947:1 1013:1 1034:1 1048:1 1052:1 1055:1 1063:1 1087:1 1090:1 1099:1 1118:1 1129:1 1130:1 1239:1 1271:1 1273:1 1275:1 1293:1 1336:1 1346:1 1412:1 1436:1 1490:1 1554:1 1579:1 1596:1 1732:1 1736:1 1739:1 1749:1 1785:1 1963:1 1982:1 2005:1 2081:1 2169:1 2212:1 2219:1 2228:1 2245:1 2251:1 2370:1 2373:1 2382:1 2393:1 2428:1 2461:1 2595:1 2688:1 2781:1 2792:1 2992:1 3034:1 3045:1 3077:1 3078:1 3254:1 3297:1 3373:1 3376:1 3403:1 3484:1 3522:1 3592:1 3789:1 3867:1 3936:1 3991:1 4003:1 4097:1 4270:1 4303:1 4411:1 4546:1 4913:1 5122:1 5262:1 5325:1 5338:1 5428:1 5738:1 5853:1 5960:1 6298:1 6469:1 6522:1 6624:1 6872:1 7390:1 8740:1 8901:1 8962:1 #
-0.0031609529655342496340386659881005 6:1 7:1 11:1 24:1 25:1 38:1 39:1 41:1 45:1 47:1 48:1 50:1 51:1 59:1 64:1 70:1 73:1 75:1 77:1 80:1 81:1 82:1 87:1 94:1 96:1 98:1 107:1 111:1 120:1 122:1 129:1 130:1 133:1 135:1 146:1 154:1 159:1 161:1 166:1 167:1 173:1 179:1 194:1 196:1 204:1 207:1 225:1 244:1 251:1 256:1 268:1 274:1 284:1 287:1 288:1 302:1 310:1 328:1 330:1 338:1 340:1 341:1 344:1 356:1 360:1 362:1 366:1 370:1 382:1 394:1 396:1 407:1 412:1 414:1 416:1 418:1 425:1 434:1 439:1 444:1 448:1 488:1 497:1 500:1 501:1 510:1 513:1 514:1 527:1 537:1 540:1 543:1 548:1 563:1 566:1 568:1 571:1 581:1 595:1 614:1 632:1 663:1 675:1 676:1 678:1 684:1 685:1 691:1 706:1 719:1 720:1 733:1 736:1 740:1 741:1 758:1 771:1 778:1 785:1 798:1 800:1 801:1 806:1 809:1 819:1 828:1 848:1 859:1 886:1 889:1 905:1 913:1 918:1 931:1 933:1 940:1 942:1 947:1 955:1 956:1 981:1 985:1 989:1 994:1 1000:1 1013:1 1022:1 1027:1 1063:1 1065:1 1082:1 1099:1 1103:1 1116:1 1134:1 1185:1 1197:1 1198:1 1204:1 1208:1 1222:1 1242:1 1254:1 1255:1 1265:1 1273:1 1274:1 1286:1 1302:1 1360:1 1361:1 1410:1 1413:1 1414:1 1430:1 1441:1 1457:1 1532:1 1542:1 1580:1 1694:1 1732:1 1777:1 1782:1 1789:1 1813:1 1837:1 1843:1 1866:1 1869:1 1874:1 1878:1 1913:1 2050:1 2074:1 2080:1 2081:1 2171:1 2194:1 2252:1 2368:1 2400:1 2404:1 2566:1 2601:1 2607:1 2652:1 2673:1 2696:1 2743:1 2751:1 2774:1 2792:1 2808:1 3007:1 3009:1 3153:1 3219:1 3297:1 3316:1 3385:1 3437:1 3580:1 3867:1 4039:1 4111:1 4183:1 4318:1 4371:1 4470:1 4488:1 4495:1 4594:1 4609:1 4880:1 5160:1 5166:1 5277:1 5307:1 5347:1 5370:1 5427:1 5487:1 5718:1 5917:1 6213:1 6247:1 6277:1 6376:1 6424:1 6428:1 6637:1 6667:1 6696:1 6940:1 7081:1 7097:1 7335:1 7869:1 8149:1 8180:1 9063:1 9691:1 9797:1 #
-0.0079298473899832803285514515323484 4:1 5:1 6:1 7:1 8:1 19:1 24:1 35:1 36:1 38:1 41:1 47:1 48:1 50:1 54:1 62:1 75:1 82:1 87:1 96:1 98:1 106:1 111:1 120:1 154:1 157:1 165:1 167:1 181:1 194:1 196:1 197:1 198:1 216:1 249:1 268:1 302:1 310:1 312:1 329:1 334:1 345:1 369:1 375:1 400:1 402:1 412:1 423:1 434:1 448:1 463:1 501:1 540:1 543:1 579:1 592:1 595:1 632:1 673:1 675:1 697:1 705:1 706:1 734:1 736:1 806:1 831:1 859:1 861:1 898:1 933:1 1055:1 1103:1 1223:1 1255:1 1350:1 1372:1 1404:1 1429:1 1703:1 1868:1 1985:1 1997:1 2183:1 2465:1 2505:1 2691:1 2699:1 2701:1 2992:1 3271:1 3321:1 3672:1 3676:1 3839:1 3886:1 4339:1 4485:1 5288:1 7097:1 7277:1 7428:1 7600:1 7622:1 #
0.018906467210143967916380347560334 46:1 104:1 1455:1 1572:1 2764:1 3726:1 4959:1 7696:1 #
-0.018906467210143967916380347560334 4:1 5:1 6:1 7:1 15:1 17:1 19:1 24:1 37:1 38:1 41:1 48:1 54:1 58:1 59:1 80:1 86:1 113:1 116:1 120:1 142:1 145:1 159:1 166:1 204:1 215:1 300:1 309:1 349:1 353:1 357:1 360:1 367:1 375:1 388:1 414:1 434:1 441:1 508:1 563:1 568:1 588:1 602:1 636:1 646:1 701:1 735:1 766:1 780:1 844:1 851:1 855:1 857:1 879:1 943:1 970:1 986:1 991:1 1003:1 1041:1 1061:1 1063:1 1076:1 1077:1 1078:1 1080:1 1100:1 1113:1 1129:1 1135:1 1146:1 1149:1 1229:1 1242:1 1293:1 1346:1 1418:1 1451:1 1542:1 1652:1 1721:1 1745:1 1816:1 1835:1 1836:1 1844:1 1846:1 1881:1 1901:1 1927:1 1940:1 1973:1 1992:1 2074:1 2080:1 2096:1 2387:1 2540:1 2982:1 2993:1 3105:1 3404:1 3542:1 3644:1 3761:1 3915:1 3977:1 4059:1 4113:1 4140:1 4144:1 4321:1 4329:1 4455:1 4675:1 5140:1 5433:1 5530:1 6226:1 6361:1 6827:1 6833:1 6934:1 6944:1 7277:1 8143:1 8147:1 8745:1 9280:1 9479:1 9707:1 #
-0.018906467210143967916380347560334 4:1 5:1 6:1 7:1 11:1 24:1 26:1 36:1 48:1 64:1 73:1 146:1 154:1 161:1 166:1 204:1 232:1 251:1 256:1 264:1 326:1 338:1 413:1 434:1 527:1 624:1 760:1 788:1 843:1 863:1 963:1 1050:1 1090:1 1153:1 1278:1 1353:1 1413:1 1710:1 1844:1 3397:1 3559:1 5074:1 5220:1 5359:1 #
-0.018906467210143967916380347560334 36:1 49:1 248:1 326:1 1865:1 2234:1 5047:1 5060:1 7613:1 7841:1 #
-0.010791292154854935370078550249673 4:1 7:1 11:1 26:1 48:1 161:1 170:1 190:1 233:1 264:1 372:1 434:1 449:1 719:1 907:1 911:1 943:1 1139:1 1277:1 1572:1 3075:1 #
0.0063692662232002050098911283271264 1:1 6:1 7:1 8:1 15:1 19:1 24:1 27:1 35:1 37:1 39:1 40:1 46:1 47:1 48:1 50:1 54:1 59:1 62:1 68:1 71:1 72:1 75:1 77:1 87:1 93:1 94:1 98:1 106:1 107:1 111:1 119:1 120:1 121:1 137:1 139:1 142:1 146:1 156:1 161:1 165:1 166:1 173:1 188:1 192:1 195:1 204:1 234:1 244:1 255:1 256:1 259:1 273:1 276:1 284:1 287:1 295:1 297:1 302:1 310:1 313:1 319:1 331:1 338:1 345:1 348:1 358:1 360:1 370:1 390:1 393:1 399:1 406:1 408:1 411:1 415:1 428:1 432:1 434:1 437:1 465:1 486:1 487:1 493:1 497:1 508:1 510:1 543:1 586:1 600:1 606:1 609:1 631:1 662:1 668:1 700:1 736:1 741:1 758:1 772:1 781:1 793:1 802:1 828:1 851:1 865:1 866:1 881:1 886:1 919:1 932:1 950:1 971:1 978:1 1045:1 1081:1 1093:1 1116:1 1117:1 1123:1 1160:1 1164:1 1199:1 1208:1 1229:1 1236:1 1250:1 1272:1 1276:1 1296:1 1339:1 1355:1 1364:1 1391:1 1413:1 1417:1 1436:1 1489:1 1493:1 1500:1 1507:1 1508:1 1603:1 1692:1 1799:1 1817:1 1819:1 1844:1 1897:1 1986:1 2003:1 2050:1 2103:1 2114:1 2213:1 2246:1 2273:1 2283:1 2292:1 2339:1 2385:1 2436:1 2465:1 2490:1 2626:1 2640:1 2797:1 2843:1 2944:1 2997:1 3043:1 3305:1 3417:1 3456:1 3465:1 3555:1 3676:1 3731:1 3777:1 3818:1 3975:1 4075:1 4118:1 4258:1 4276:1 4297:1 4469:1 4509:1 4895:1 4982:1 5267:1 5270:1 5371:1 5535:1 5605:1 5657:1 5713:1 5767:1 5887:1 5953:1 6075:1 6239:1 6510:1 6563:1 6736:1 6891:1 7475:1 7531:1 7582:1 7614:1 7728:1 8087:1 8448:1 8489:1 8738:1 8917:1 9120:1 9310:1 9315:1 #
0.018906467210143967916380347560334 4:1 6:1 7:1 8:1 17:1 24:1 31:1 33:1 35:1 39:1 47:1 48:1 50:1 62:1 68:1 70:1 75:1 80:1 86:1 98:1 113:1 120:1 129:1 130:1 146:1 152:1 159:1 181:1 197:1 230:1 256:1 281:1 284:1 287:1 329:1 394:1 415:1 425:1 434:1 436:1 459:1 508:1 510:1 548:1 583:1 594:1 676:1 679:1 685:1 706:1 710:1 758:1 791:1 804:1 806:1 815:1 828:1 831:1 877:1 889:1 918:1 1011:1 1013:1 1048:1 1136:1 1205:1 1229:1 1325:1 1896:1 2228:1 2415:1 2920:1 3113:1 3219:1 3316:1 3379:1 3759:1 3772:1 3865:1 3964:1 4815:1 4988:1 5220:1 5405:1 6010:1 6785:1 7265:1 8145:1 8538:1 8547:1 9865:1 #
0.0092797768269485859937706351274755 4:1 6:1 7:1 8:1 11:1 15:1 19:1 24:1 35:1 39:1 40:1 41:1 42:1 45:1 47:1 48:1 50:1 59:1 62:1 72:1 73:1 75:1 82:1 87:1 96:1 97:1 98:1 103:1 106:1 107:1 108:1 111:1 129:1 133:1 136:1 146:1 159:1 161:1 167:1 201:1 207:1 216:1 230:1 271:1 273:1 276:1 284:1 310:1 329:1 334:1 337:1 360:1 369:1 370:1 382:1 389:1 393:1 400:1 414:1 434:1 448:1 514:1 527:1 543:1 551:1 568:1 571:1 594:1 595:1 618:1 626:1 630:1 673:1 676:1 678:1 692:1 705:1 706:1 719:1 720:1 741:1 771:1 802:1 806:1 809:1 859:1 898:1 929:1 942:1 952:1 995:1 1001:1 1011:1 1031:1 1045:1 1065:1 1093:1 1118:1 1134:1 1135:1 1140:1 1150:1 1275:1 1285:1 1306:1 1326:1 1347:1 1372:1 1404:1 1418:1 1429:1 1436:1 1481:1 1575:1 1580:1 1582:1 1635:1 1640:1 1675:1 1680:1 1693:1 1743:1 1755:1 1817:1 1834:1 1950:1 1997:1 2012:1 2019:1 2183:1 2299:1 2465:1 2606:1 2691:1 2708:1 2765:1 2887:1 2927:1 2964:1 3070:1 3149:1 3153:1 3194:1 3199:1 3230:1 3278:1 3323:1 3364:1 3617:1 3775:1 3979:1 4203:1 4213:1 4270:1 4339:1 4347:1 4370:1 4371:1 4869:1 5222:1 5534:1 5642:1 5772:1 5775:1 5875:1 6235:1 7312:1 8095:1 8263:1 8509:1 9026:1 9235:1 #
0.018906467210143967916380347560334 6:1 7:1 13:1 21:1 24:1 27:1 31:1 33:1 38:1 41:1 42:1 48:1 51:1 53:1 57:1 59:1 62:1 67:1 68:1 73:1 78:1 80:1 82:1 99:1 113:1 123:1 132:1 133:1 135:1 146:1 159:1 161:1 165:1 166:1 175:1 195:1 198:1 202:1 216:1 219:1 220:1 234:1 251:1 282:1 302:1 308:1 332:1 396:1 434:1 468:1 503:1 519:1 545:1 563:1 573:1 585:1 616:1 622:1 649:1 679:1 690:1 694:1 715:1 720:1 737:1 797:1 801:1 825:1 830:1 876:1 904:1 911:1 955:1 971:1 982:1 1070:1 1115:1 1144:1 1209:1 1575:1 1576:1 1582:1 1586:1 1587:1 1761:1 1880:1 2057:1 2082:1 2105:1 2135:1 2196:1 2208:1 2227:1 2268:1 2698:1 2744:1 2879:1 3052:1 3496:1 3618:1 3644:1 3764:1 4001:1 4760:1 4789:1 4938:1 5094:1 5332:1 5399:1 5522:1 5559:1 5851:1 6779:1 7001:1 7080:1 7182:1 7283:1 7321:1 7482:1 7656:1 7892:1 8764:1 8848:1 8919:1 #
0.011775309036284008212813745331005 4:1 5:1 6:1 7:1 8:1 15:1 17:1 24:1 30:1 31:1 33:1 38:1 39:1 41:1 42:1 48:1 54:1 59:1 64:1 68:1 70:1 71:1 75:1 87:1 96:1 97:1 98:1 103:1 111:1 120:1 128:1 129:1 141:1 152:1 159:1 167:1 173:1 181:1 192:1 194:1 207:1 216:1 231:1 244:1 282:1 284:1 287:1 293:1 296:1 303:1 345:1 348:1 349:1 362:1 375:1 393:1 414:1 420:1 434:1 436:1 437:1 438:1 444:1 465:1 478:1 501:1 510:1 520:1 552:1 581:1 595:1 602:1 613:1 629:1 673:1 675:1 690:1 720:1 736:1 771:1 808:1 848:1 861:1 868:1 909:1 929:1 935:1 972:1 1010:1 1013:1 1028:1 1057:1 1070:1 1075:1 1088:1 1096:1 1134:1 1136:1 1155:1 1158:1 1168:1 1237:1 1261:1 1436:1 1511:1 1553:1 1573:1 1587:1 1662:1 1722:1 1909:1 2128:1 2145:1 2354:1 2382:1 2595:1 2643:1 2674:1 2845:1 2850:1 2899:1 2910:1 2942:1 2981:1 3359:1 3465:1 3529:1 3543:1 3672:1 3872:1 3911:1 4426:1 4696:1 4879:1 5050:1 5468:1 5953:1 6862:1 6894:1 7016:1 7266:1 8149:1 8926:1 9185:1 9579:1 9580:1 #
-0.016834600029855414926593937252619 6:1 7:1 13:1 21:1 24:1 27:1 31:1 33:1 38:1 41:1 42:1 48:1 51:1 53:1 57:1 59:1 62:1 64:1 67:1 68:1 73:1 75:1 78:1 80:1 82:1 87:1 98:1 99:1 113:1 123:1 132:1 133:1 134:1 135:1 146:1 159:1 161:1 165:1 166:1 175:1 192:1 195:1 198:1 202:1 216:1 219:1 220:1 230:1 234:1 251:1 282:1 299:1 302:1 308:1 332:1 338:1 345:1 396:1 400:1 434:1 452:1 468:1 503:1 519:1 545:1 563:1 568:1 573:1 585:1 616:1 622:1 649:1 679:1 690:1 694:1 715:1 720:1 737:1 797:1 801:1 825:1 830:1 866:1 876:1 904:1 911:1 935:1 955:1 971:1 982:1 1070:1 1115:1 1144:1 1209:1 1267:1 1429:1 1575:1 1576:1 1582:1 1586:1 1587:1 1670:1 1761:1 1804:1 1880:1 1914:1 1964:1 2057:1 2082:1 2105:1 2135:1 2196:1 2208:1 2227:1 2268:1 2427:1 2532:1 2605:1 2698:1 2744:1 2879:1 3052:1 3496:1 3618:1 3644:1 3764:1 3906:1 4001:1 4371:1 4760:1 4789:1 4938:1 5026:1 5067:1 5094:1 5332:1 5399:1 5522:1 5559:1 5851:1 5900:1 6327:1 6779:1 7001:1 7038:1 7080:1 7182:1 7283:1 7321:1 7482:1 7656:1 7892:1 8764:1 8848:1 8919:1 9270:1 #
-0.0070827843118430157745568642724265 46:1 364:1 455:1 482:1 1455:1 1567:1 5928:1 9911:1 #
-0.0010651064404673179098620439120282 6:1 7:1 8:1 19:1 24:1 27:1 38:1 39:1 40:1 41:1 45:1 46:1 47:1 48:1 50:1 59:1 62:1 64:1 66:1 70:1 72:1 73:1 75:1 76:1 77:1 78:1 82:1 87:1 96:1 98:1 100:1 107:1 111:1 120:1 129:1 137:1 140:1 157:1 159:1 161:1 165:1 167:1 173:1 178:1 188:1 192:1 194:1 196:1 197:1 207:1 216:1 218:1 227:1 230:1 234:1 256:1 271:1 273:1 287:1 297:1 318:1 319:1 329:1 334:1 337:1 338:1 341:1 347:1 360:1 362:1 389:1 393:1 394:1 399:1 400:1 401:1 402:1 415:1 428:1 434:1 463:1 480:1 481:1 483:1 508:1 510:1 518:1 519:1 537:1 578:1 579:1 583:1 594:1 600:1 626:1 631:1 640:1 642:1 654:1 659:1 666:1 669:1 673:1 688:1 695:1 719:1 720:1 727:1 740:1 772:1 795:1 819:1 859:1 889:1 914:1 919:1 921:1 926:1 930:1 932:1 956:1 961:1 965:1 995:1 1011:1 1013:1 1031:1 1045:1 1117:1 1120:1 1135:1 1164:1 1174:1 1204:1 1208:1 1242:1 1250:1 1288:1 1302:1 1338:1 1476:1 1507:1 1547:1 1562:1 1600:1 1610:1 1620:1 1695:1 1720:1 1755:1 1890:1 1901:1 1921:1 2020:1 2067:1 2109:1 2216:1 2488:1 2490:1 2583:1 2609:1 2650:1 2786:1 2826:1 2843:1 2876:1 2944:1 3113:1 3156:1 3327:1 3369:1 3528:1 3564:1 3595:1 3845:1 3852:1 3963:1 4069:1 4299:1 4345:1 4405:1 4429:1 4486:1 4696:1 5285:1 5303:1 6563:1 6652:1 6926:1 7112:1 7172:1 8086:1 8191:1 8276:1 8489:1 8579:1 9587:1 9721:1 #
-0.017789730586458701172558605207996 6:1 7:1 11:1 15:1 17:1 23:1 24:1 39:1 40:1 41:1 45:1 47:1 48:1 50:1 51:1 59:1 62:1 64:1 66:1 68:1 70:1 73:1 75:1 77:1 80:1 82:1 87:1 97:1 98:1 107:1 111:1 120:1 139:1 146:1 152:1 166:1 188:1 192:1 194:1 195:1 213:1 218:1 223:1 257:1 261:1 270:1 277:1 284:1 287:1 294:1 296:1 345:1 373:1 393:1 400:1 401:1 402:1 416:1 420:1 425:1 426:1 427:1 428:1 434:1 463:1 467:1 468:1 477:1 480:1 488:1 508:1 510:1 543:1 560:1 563:1 581:1 583:1 613:1 625:1 662:1 666:1 685:1 692:1 696:1 698:1 714:1 716:1 719:1 730:1 748:1 758:1 771:1 776:1 783:1 805:1 806:1 809:1 819:1 854:1 868:1 870:1 891:1 909:1 932:1 942:1 947:1 955:1 1089:1 1099:1 1125:1 1211:1 1239:1 1244:1 1274:1 1275:1 1320:1 1326:1 1348:1 1350:1 1380:1 1400:1 1600:1 1693:1 1929:1 1934:1 2033:1 2055:1 2067:1 2174:1 2201:1 2228:1 2541:1 2564:1 2587:1 2639:1 2784:1 2877:1 2981:1 3041:1 3109:1 3168:1 3173:1 3363:1 3379:1 3514:1 3528:1 3556:1 3644:1 3898:1 3903:1 3975:1 4055:1 4361:1 5137:1 5508:1 5751:1 5889:1 5987:1 6164:1 6393:1 7646:1 7977:1 #
-0.0075236282467180852842614235953533 6:1 7:1 11:1 15:1 24:1 30:1 45:1 47:1 48:1 49:1 58:1 59:1 62:1 64:1 68:1 71:1 73:1 75:1 77:1 78:1 80:1 82:1 84:1 96:1 98:1 107:1 111:1 120:1 125:1 130:1 131:1 142:1 152:1 157:1 159:1 166:1 167:1 192:1 194:1 198:1 210:1 234:1 245:1 252:1 255:1 277:1 282:1 284:1 287:1 296:1 312:1 313:1 316:1 357:1 360:1 362:1 372:1 379:1 399:1 420:1 431:1 434:1 442:1 445:1 453:1 465:1 468:1 486:1 500:1 505:1 508:1 513:1 514:1 515:1 519:1 527:1 536:1 542:1 563:1 569:1 593:1 616:1 618:1 655:1 665:1 705:1 788:1 799:1 815:1 823:1 831:1 835:1 840:1 842:1 860:1 893:1 907:1 924:1 942:1 948:1 1006:1 1021:1 1034:1 1066:1 1075:1 1134:1 1136:1 1162:1 1185:1 1208:1 1211:1 1215:1 1227:1 1236:1 1242:1 1247:1 1254:1 1257:1 1273:1 1275:1 1297:1 1324:1 1338:1 1345:1 1381:1 1393:1 1423:1 1448:1 1455:1 1458:1 1499:1 1515:1 1517:1 1547:1 1557:1 1596:1 1625:1 1631:1 1655:1 1666:1 1702:1 1716:1 1723:1 1886:1 1908:1 1912:1 1930:1 1934:1 1939:1 2003:1 2187:1 2209:1 2247:1 2539:1 2609:1 2671:1 2762:1 2840:1 2929:1 2973:1 2981:1 3236:1 3253:1 3254:1 3594:1 3618:1 3673:1 3843:1 3931:1 4151:1 4258:1 4269:1 4399:1 4495:1 4548:1 4630:1 4747:1 4764:1 4975:1 5000:1 5013:1 5053:1 5279:1 5347:1 6206:1 6343:1 6347:1 6602:1 6797:1 7816:1 8020:1 8048:1 8314:1 8374:1 8690:1 8873:1 9342:1 9652:1 9966:1 #
0.018906467210143967916380347560334 4:1 5:1 6:1 7:1 26:1 41:1 48:1 49:1 53:1 64:1 80:1 86:1 113:1 124:1 172:1 177:1 205:1 213:1 234:1 248:1 355:1 360:1 434:1 439:1 471:1 788:1 807:1 882:1 967:1 976:1 1026:1 1287:1 1384:1 1421:1 1494:1 1581:1 1652:1 1739:1 1865:1 1939:1 2234:1 4234:1 4353:1 #
0.018906467210143967916380347560334 6:1 17:1 23:1 24:1 26:1 48:1 51:1 109:1 113:1 124:1 142:1 234:1 248:1 259:1 278:1 288:1 311:1 343:1 434:1 450:1 452:1 494:1 560:1 571:1 604:1 719:1 836:1 856:1 1090:1 1179:1 1440:1 1495:1 2267:1 2577:1 2865:1 3180:1 3262:1 3326:1 4057:1 4160:1 4318:1 7538:1 7702:1 8913:1 #
0.018906467210143967916380347560334 46:1 104:1 326:1 413:1 636:1 887:1 898:1 1798:1 2167:1 5465:1 #
0.018906467210143967916380347560334 46:1 104:1 326:1 413:1 636:1 887:1 898:1 1798:1 2006:1 2189:1 3193:1 8076:1 #
-0.018906467210143967916380347560334 4:1 5:1 6:1 7:1 26:1 36:1 37:1 86:1 100:1 124:1 177:1 205:1 213:1 232:1 234:1 248:1 355:1 439:1 471:1 585:1 750:1 753:1 788:1 807:1 967:1 976:1 1026:1 1292:1 1384:1 1739:1 2234:1 2506:1 2588:1 4892:1 #
0.012511431896644071432023181955628 6:1 7:1 8:1 15:1 17:1 19:1 24:1 35:1 38:1 40:1 41:1 45:1 47:1 48:1 51:1 52:1 59:1 62:1 73:1 75:1 78:1 94:1 96:1 98:1 106:1 107:1 111:1 133:1 139:1 146:1 166:1 182:1 188:1 192:1 195:1 204:1 213:1 216:1 223:1 226:1 230:1 256:1 271:1 274:1 287:1 296:1 299:1 302:1 310:1 353:1 357:1 360:1 366:1 370:1 399:1 401:1 415:1 418:1 431:1 434:1 438:1 439:1 487:1 515:1 526:1 568:1 576:1 599:1 657:1 662:1 690:1 692:1 740:1 763:1 765:1 778:1 799:1 801:1 802:1 806:1 813:1 817:1 835:1 859:1 861:1 893:1 935:1 966:1 978:1 1038:1 1057:1 1078:1 1086:1 1118:1 1138:1 1146:1 1159:1 1185:1 1207:1 1222:1 1247:1 1276:1 1309:1 1429:1 1471:1 1484:1 1528:1 1569:1 1578:1 1595:1 1603:1 1622:1 1645:1 1656:1 1664:1 1715:1 1717:1 1755:1 1803:1 1903:1 1918:1 1924:1 1982:1 2044:1 2088:1 2110:1 2271:1 2339:1 2340:1 2379:1 2399:1 2482:1 2489:1 2493:1 2605:1 2677:1 2790:1 2853:1 2911:1 2969:1 3007:1 3113:1 3155:1 3203:1 3211:1 3221:1 3283:1 3368:1 3463:1 3469:1 3549:1 3562:1 3564:1 4646:1 4685:1 4729:1 4806:1 4868:1 4884:1 4931:1 4943:1 5095:1 5137:1 5447:1 5688:1 5705:1 6417:1 6632:1 6695:1 6871:1 7052:1 7081:1 7248:1 7746:1 8274:1 #
0.0018010106416195470133145839497502 5:1 6:1 7:1 8:1 11:1 15:1 17:1 19:1 24:1 35:1 38:1 40:1 41:1 42:1 45:1 47:1 48:1 58:1 59:1 62:1 64:1 68:1 69:1 70:1 72:1 73:1 75:1 78:1 80:1 82:1 84:1 93:1 94:1 96:1 107:1 108:1 111:1 113:1 120:1 121:1 130:1 131:1 137:1 138:1 146:1 157:1 159:1 161:1 165:1 166:1 177:1 180:1 182:1 185:1 192:1 194:1 198:1 202:1 205:1 216:1 218:1 227:1 245:1 249:1 251:1 256:1 259:1 267:1 271:1 273:1 276:1 277:1 280:1 284:1 287:1 294:1 296:1 302:1 308:1 312:1 316:1 324:1 338:1 344:1 347:1 348:1 349:1 360:1 371:1 384:1 387:1 388:1 390:1 398:1 408:1 414:1 415:1 418:1 422:1 428:1 431:1 434:1 451:1 453:1 459:1 474:1 476:1 486:1 487:1 488:1 508:1 510:1 519:1 526:1 563:1 568:1 572:1 573:1 578:1 593:1 624:1 664:1 665:1 682:1 697:1 710:1 714:1 719:1 737:1 764:1 786:1 791:1 797:1 808:1 834:1 838:1 859:1 877:1 879:1 918:1 919:1 932:1 946:1 971:1 990:1 1029:1 1048:1 1053:1 1073:1 1135:1 1138:1 1162:1 1171:1 1186:1 1194:1 1198:1 1211:1 1222:1 1265:1 1266:1 1279:1 1327:1 1337:1 1362:1 1367:1 1402:1 1424:1 1468:1 1480:1 1490:1 1496:1 1528:1 1530:1 1535:1 1556:1 1560:1 1639:1 1681:1 1712:1 1760:1 1790:1 1825:1 1835:1 1853:1 2045:1 2050:1 2108:1 2124:1 2147:1 2213:1 2247:1 2303:1 2315:1 2497:1 2509:1 2557:1 2596:1 2617:1 2651:1 2728:1 2841:1 2951:1 3045:1 3218:1 3238:1 3382:1 3389:1 3402:1 3471:1 3541:1 3638:1 3666:1 3773:1 3833:1 4074:1 4174:1 4348:1 4351:1 4392:1 4393:1 4407:1 4566:1 4863:1 4920:1 5001:1 5004:1 5050:1 5143:1 5399:1 5406:1 5492:1 5620:1 6152:1 7311:1 7635:1 7985:1 8107:1 8441:1 8772:1 9180:1 9200:1 9932:1 #
-0.018906467210143967916380347560334 5:1 6:1 7:1 8:1 17:1 19:1 23:1 24:1 35:1 40:1 47:1 48:1 50:1 52:1 59:1 62:1 75:1 77:1 80:1 86:1 94:1 96:1 98:1 100:1 106:1 107:1 109:1 133:1 160:1 172:1 188:1 195:1 196:1 282:1 347:1 360:1 362:1 393:1 399:1 415:1 431:1 434:1 438:1 451:1 572:1 576:1 594:1 644:1 690:1 692:1 715:1 741:1 765:1 767:1 823:1 861:1 882:1 886:1 932:1 978:1 1105:1 1158:1 1168:1 1169:1 1352:1 1369:1 1603:1 1705:1 1720:1 1803:1 1854:1 1869:1 1903:1 1924:1 2572:1 2605:1 2639:1 2853:1 2914:1 3047:1 3202:1 3243:1 3417:1 4420:1 4465:1 4646:1 6227:1 6239:1 6476:1 6593:1 #
-0.0060131136835102757740023626809034 5:1 6:1 7:1 19:1 24:1 41:1 42:1 45:1 46:1 47:1 48:1 51:1 64:1 70:1 73:1 77:1 82:1 93:1 94:1 96:1 97:1 98:1 103:1 107:1 108:1 120:1 122:1 129:1 130:1 138:1 152:1 178:1 195:1 207:1 216:1 231:1 242:1 282:1 285:1 302:1 312:1 344:1 348:1 355:1 357:1 360:1 371:1 390:1 393:1 408:1 415:1 426:1 428:1 434:1 439:1 442:1 480:1 486:1 487:1 491:1 536:1 548:1 568:1 571:1 572:1 583:1 586:1 599:1 659:1 687:1 714:1 715:1 718:1 737:1 740:1 758:1 778:1 793:1 834:1 978:1 1037:1 1045:1 1063:1 1097:1 1117:1 1150:1 1203:1 1220:1 1247:1 1265:1 1310:1 1314:1 1323:1 1340:1 1349:1 1380:1 1434:1 1435:1 1440:1 1480:1 1492:1 1509:1 1523:1 1553:1 1667:1 1675:1 1854:1 2008:1 2062:1 2160:1 2249:1 2250:1 2255:1 2358:1 2544:1 2694:1 2705:1 2744:1 2810:1 2848:1 2889:1 3047:1 3074:1 3243:1 3655:1 3680:1 3998:1 4325:1 4335:1 4409:1 4715:1 4903:1 5142:1 5900:1 5925:1 6303:1 7657:1 8562:1 8624:1 #
-0.0021662187216927525704179835486229 5:1 6:1 7:1 8:1 24:1 31:1 33:1 41:1 42:1 45:1 46:1 48:1 59:1 62:1 64:1 70:1 73:1 75:1 77:1 78:1 94:1 96:1 103:1 107:1 111:1 125:1 129:1 138:1 152:1 161:1 166:1 178:1 188:1 192:1 195:1 207:1 216:1 229:1 251:1 256:1 261:1 271:1 287:1 293:1 310:1 318:1 319:1 333:1 341:1 355:1 360:1 382:1 390:1 393:1 399:1 408:1 425:1 426:1 428:1 434:1 439:1 568:1 581:1 583:1 608:1 619:1 635:1 662:1 714:1 718:1 768:1 776:1 778:1 819:1 853:1 909:1 946:1 978:1 1003:1 1045:1 1053:1 1062:1 1073:1 1123:1 1125:1 1162:1 1163:1 1164:1 1171:1 1185:1 1193:1 1199:1 1208:1 1211:1 1220:1 1229:1 1274:1 1340:1 1350:1 1352:1 1417:1 1435:1 1493:1 1512:1 1538:1 1545:1 1663:1 1690:1 1824:1 1890:1 1979:1 2128:1 2303:1 2584:1 2697:1 2776:1 2927:1 3050:1 3074:1 3216:1 3305:1 3380:1 3506:1 3566:1 3581:1 3705:1 3768:1 3787:1 3928:1 3962:1 3973:1 4129:1 4259:1 4276:1 4352:1 5044:1 5274:1 5281:1 5384:1 5885:1 6256:1 6851:1 6853:1 6880:1 7845:1 9134:1 9282:1 9355:1 9481:1 9529:1 #
-0.0012088103392373110347296494282432 6:1 7:1 19:1 24:1 26:1 45:1 46:1 48:1 54:1 59:1 67:1 68:1 77:1 80:1 82:1 84:1 94:1 96:1 107:1 118:1 120:1 121:1 137:1 145:1 152:1 156:1 157:1 159:1 174:1 181:1 195:1 198:1 199:1 207:1 238:1 270:1 271:1 273:1 274:1 285:1 287:1 313:1 360:1 363:1 388:1 390:1 399:1 434:1 435:1 460:1 465:1 519:1 571:1 606:1 609:1 641:1 715:1 722:1 734:1 764:1 765:1 778:1 784:1 801:1 812:1 875:1 883:1 996:1 1022:1 1032:1 1034:1 1078:1 1091:1 1093:1 1122:1 1143:1 1199:1 1222:1 1267:1 1269:1 1310:1 1332:1 1345:1 1393:1 1410:1 1434:1 1460:1 1464:1 1505:1 1565:1 1571:1 1573:1 1594:1 1613:1 1665:1 1731:1 1907:1 2127:1 2212:1 2230:1 2339:1 2631:1 2732:1 2744:1 2959:1 2997:1 3098:1 3147:1 3191:1 3218:1 3255:1 3411:1 3535:1 4116:1 4299:1 4341:1 4532:1 4556:1 4564:1 4619:1 4699:1 4708:1 4741:1 4781:1 4823:1 4859:1 5881:1 6057:1 6129:1 6280:1 6295:1 6462:1 6747:1 6836:1 7020:1 7583:1 7994:1 8239:1 9040:1 9595:1 9596:1 #
-0.0066800585143894754616700204508106 6:1 7:1 8:1 19:1 24:1 31:1 33:1 35:1 37:1 40:1 45:1 47:1 50:1 59:1 62:1 64:1 73:1 75:1 78:1 80:1 87:1 96:1 100:1 106:1 107:1 120:1 146:1 152:1 154:1 161:1 166:1 192:1 197:1 244:1 251:1 273:1 284:1 296:1 310:1 349:1 356:1 394:1 414:1 416:1 425:1 427:1 434:1 448:1 514:1 579:1 594:1 615:1 619:1 632:1 657:1 694:1 763:1 771:1 870:1 919:1 942:1 981:1 1021:1 1022:1 1055:1 1089:1 1118:1 1140:1 1171:1 1205:1 1226:1 1241:1 1273:1 1324:1 1339:1 1360:1 1381:1 1409:1 1542:1 1578:1 1653:1 1664:1 1696:1 1717:1 1729:1 1774:1 1901:1 1968:1 2058:1 2147:1 2316:1 2335:1 2337:1 2338:1 2352:1 2353:1 2488:1 2518:1 2523:1 2596:1 2718:1 2815:1 2911:1 2969:1 3045:1 3145:1 3181:1 3221:1 3362:1 3479:1 3591:1 3602:1 3646:1 3685:1 4055:1 4593:1 4719:1 4814:1 4925:1 5172:1 5199:1 5453:1 5564:1 5910:1 6422:1 6628:1 6923:1 7178:1 7650:1 8031:1 8689:1 8701:1 9292:1 9415:1 9765:1 #
0.017558015683840667853221617633608 5:1 6:1 15:1 23:1 24:1 26:1 30:1 40:1 49:1 59:1 87:1 94:1 98:1 120:1 165:1 213:1 248:1 249:1 324:1 334:1 338:1 349:1 434:1 452:1 502:1 585:1 685:1 687:1 733:1 842:1 891:1 1121:1 1270:1 1703:1 1883:1 2139:1 3163:1 4119:1 4846:1 4996:1 6682:1 7054:1 7547:1 8219:1 #
0.016284304680358935302209033579857 5:1 6:1 15:1 23:1 24:1 26:1 30:1 40:1 59:1 87:1 94:1 98:1 120:1 165:1 213:1 248:1 249:1 324:1 334:1 337:1 338:1 349:1 434:1 452:1 461:1 502:1 585:1 685:1 687:1 727:1 733:1 870:1 891:1 1121:1 1270:1 1703:1 1883:1 2139:1 2337:1 2564:1 3163:1 3482:1 4846:1 5478:1 7064:1 7221:1 9745:1 #
0.018906467210143967916380347560334 5:1 6:1 7:1 10:1 11:1 15:1 23:1 24:1 27:1 37:1 42:1 59:1 82:1 91:1 98:1 99:1 102:1 103:1 118:1 120:1 134:1 143:1 169:1 193:1 196:1 203:1 216:1 257:1 261:1 312:1 350:1 360:1 434:1 435:1 459:1 483:1 560:1 568:1 685:1 730:1 748:1 859:1 891:1 1066:1 1101:1 1236:1 1244:1 1282:1 1328:1 1582:1 1949:1 2006:1 2096:1 2120:1 2139:1 2464:1 2543:1 2564:1 2893:1 3318:1 4571:1 4642:1 6420:1 #
0.018906467210143967916380347560334 4:1 6:1 7:1 8:1 17:1 42:1 47:1 50:1 54:1 62:1 81:1 82:1 87:1 98:1 113:1 131:1 137:1 159:1 287:1 306:1 309:1 326:1 338:1 342:1 388:1 398:1 401:1 434:1 448:1 475:1 501:1 639:1 754:1 924:1 1059:1 1197:1 1226:1 1237:1 1607:1 1928:1 2180:1 2227:1 3753:1 4738:1 4846:1 5197:1 5920:1 6697:1 7994:1 9887:1 #
0.018906467210143967916380347560334 4:1 6:1 7:1 8:1 19:1 24:1 35:1 48:1 59:1 62:1 87:1 98:1 103:1 106:1 107:1 125:1 142:1 157:1 198:1 213:1 230:1 294:1 302:1 383:1 413:1 433:1 434:1 477:1 500:1 503:1 544:1 667:1 736:1 851:1 857:1 924:1 950:1 1088:1 1122:1 1255:1 1310:1 1362:1 1393:1 1421:1 1429:1 1489:1 1490:1 1856:1 2121:1 2195:1 2309:1 2536:1 2838:1 3150:1 3344:1 3370:1 4059:1 5592:1 6578:1 7339:1 #
-0.011560845218300802930699866521991 4:1 5:1 6:1 7:1 8:1 19:1 24:1 26:1 31:1 33:1 35:1 36:1 37:1 39:1 40:1 41:1 48:1 68:1 78:1 81:1 87:1 98:1 106:1 107:1 116:1 120:1 121:1 124:1 137:1 139:1 142:1 154:1 177:1 178:1 197:1 204:1 205:1 210:1 216:1 218:1 223:1 230:1 234:1 260:1 274:1 286:1 302:1 310:1 334:1 337:1 349:1 383:1 398:1 433:1 434:1 437:1 459:1 469:1 477:1 501:1 521:1 560:1 571:1 594:1 667:1 685:1 754:1 788:1 863:1 966:1 1112:1 1138:1 1179:1 1214:1 1226:1 1265:1 1394:1 1429:1 1608:1 1662:1 1663:1 1931:1 2126:1 2180:1 2371:1 2428:1 2554:1 2555:1 2601:1 2710:1 2788:1 2819:1 3020:1 3169:1 3339:1 3366:1 3397:1 3539:1 3737:1 4039:1 4059:1 4393:1 5127:1 5515:1 7562:1 9325:1 #
-0.00063324029316558824286714779461249 4:1 6:1 7:1 19:1 24:1 30:1 38:1 42:1 47:1 48:1 59:1 62:1 72:1 93:1 98:1 103:1 107:1 111:1 119:1 139:1 145:1 146:1 161:1 192:1 195:1 199:1 207:1 229:1 244:1 273:1 331:1 340:1 352:1 388:1 416:1 433:1 434:1 475:1 486:1 508:1 519:1 603:1 613:1 701:1 734:1 758:1 765:1 779:1 836:1 863:1 1042:1 1080:1 1204:1 1214:1 1231:1 1236:1 1418:1 1445:1 1507:1 1517:1 1530:1 1554:1 1992:1 2086:1 2389:1 2825:1 2892:1 3258:1 3457:1 4014:1 4184:1 5385:1 5553:1 6525:1 8536:1 #
-0.00068943584137987892410115442487495 6:1 7:1 24:1 28:1 38:1 45:1 48:1 59:1 69:1 73:1 77:1 80:1 99:1 120:1 123:1 152:1 153:1 167:1 187:1 277:1 285:1 296:1 332:1 355:1 370:1 415:1 434:1 439:1 442:1 465:1 478:1 545:1 556:1 576:1 586:1 594:1 600:1 614:1 619:1 649:1 683:1 694:1 808:1 914:1 956:1 977:1 1063:1 1122:1 1235:1 1309:1 1340:1 1345:1 1434:1 1487:1 1650:1 1693:1 1701:1 1966:1 2011:1 2062:1 2082:1 2147:1 2232:1 2395:1 3078:1 3198:1 3242:1 3300:1 3544:1 3680:1 3926:1 4015:1 4100:1 4477:1 4856:1 4928:1 5880:1 6112:1 6575:1 6765:1 6806:1 7197:1 7631:1 7851:1 8091:1 8459:1 8963:1 9040:1 #
-0.001068996685054850962620642818024 6:1 7:1 19:1 24:1 38:1 46:1 47:1 59:1 80:1 82:1 91:1 94:1 98:1 122:1 132:1 146:1 157:1 159:1 251:1 274:1 401:1 434:1 501:1 508:1 514:1 525:1 578:1 585:1 612:1 642:1 665:1 685:1 688:1 758:1 771:1 804:1 835:1 909:1 939:1 968:1 970:1 1196:1 1208:1 1214:1 1227:1 1294:1 1328:1 1945:1 1950:1 2071:1 2096:1 2284:1 2609:1 2826:1 3205:1 3664:1 4121:1 4795:1 4834:1 4863:1 6272:1 7396:1 7890:1 8283:1 8774:1 #
-0.016944190242158638226577238583559 4:1 5:1 6:1 7:1 17:1 24:1 31:1 33:1 59:1 82:1 86:1 87:1 98:1 103:1 120:1 141:1 147:1 172:1 193:1 249:1 286:1 300:1 302:1 318:1 370:1 434:1 459:1 485:1 560:1 801:1 865:1 884:1 918:1 956:1 1018:1 1047:1 1494:1 1536:1 1672:1 1779:1 4017:1 4360:1 4905:1 7141:1 9617:1 #
0.0060933164599593385088449615238915 1:1 6:1 7:1 8:1 15:1 24:1 31:1 33:1 35:1 38:1 40:1 41:1 45:1 46:1 47:1 48:1 59:1 70:1 87:1 93:1 96:1 104:1 107:1 109:1 111:1 130:1 133:1 135:1 142:1 159:1 182:1 188:1 192:1 234:1 237:1 251:1 274:1 312:1 344:1 357:1 362:1 365:1 399:1 400:1 417:1 428:1 434:1 438:1 471:1 526:1 576:1 599:1 600:1 614:1 662:1 714:1 715:1 727:1 765:1 777:1 784:1 846:1 882:1 884:1 899:1 1045:1 1072:1 1075:1 1084:1 1105:1 1123:1 1169:1 1281:1 1429:1 1445:1 1603:1 1643:1 1803:1 1869:1 1924:1 2209:1 2407:1 2534:1 2541:1 2605:1 2606:1 2639:1 2907:1 3058:1 3132:1 3243:1 3543:1 3868:1 3916:1 4348:1 4537:1 4775:1 5312:1 5677:1 6619:1 6984:1 7727:1 7768:1 7908:1 8549:1 #
0.0094698404164763900353607439797088 6:1 7:1 8:1 15:1 24:1 35:1 40:1 41:1 42:1 45:1 47:1 48:1 59:1 64:1 70:1 73:1 78:1 80:1 82:1 94:1 98:1 103:1 104:1 106:1 107:1 130:1 133:1 135:1 152:1 157:1 166:1 188:1 192:1 194:1 195:1 208:1 227:1 284:1 287:1 316:1 330:1 334:1 338:1 341:1 344:1 360:1 371:1 374:1 393:1 434:1 459:1 480:1 493:1 501:1 527:1 614:1 644:1 695:1 718:1 741:1 795:1 909:1 918:1 943:1 978:1 1002:1 1019:1 1084:1 1105:1 1171:1 1174:1 1193:1 1214:1 1328:1 1330:1 1350:1 1352:1 1402:1 1403:1 1422:1 1429:1 1569:1 1694:1 1869:1 1927:1 2029:1 2067:1 2152:1 2421:1 2433:1 2441:1 2621:1 2776:1 3045:1 3216:1 3417:1 3949:1 4372:1 4449:1 6724:1 7184:1 7694:1 7926:1 8701:1 #
0.0055823275972656984794673107330709 4:1 5:1 6:1 7:1 8:1 10:1 15:1 17:1 19:1 23:1 24:1 26:1 28:1 30:1 31:1 33:1 35:1 37:1 40:1 41:1 47:1 48:1 52:1 58:1 59:1 62:1 66:1 68:1 75:1 78:1 86:1 94:1 96:1 107:1 108:1 117:1 120:1 121:1 133:1 145:1 150:1 154:1 166:1 170:1 188:1 195:1 197:1 202:1 216:1 229:1 232:1 233:1 248:1 249:1 251:1 257:1 264:1 285:1 286:1 288:1 307:1 309:1 311:1 318:1 327:1 338:1 350:1 353:1 359:1 362:1 372:1 382:1 399:1 433:1 434:1 441:1 469:1 475:1 487:1 494:1 495:1 503:1 527:1 538:1 540:1 549:1 551:1 608:1 633:1 658:1 667:1 671:1 674:1 700:1 701:1 719:1 722:1 725:1 735:1 765:1 767:1 788:1 822:1 844:1 851:1 855:1 875:1 883:1 884:1 889:1 907:1 911:1 924:1 929:1 939:1 943:1 953:1 959:1 970:1 976:1 987:1 995:1 1003:1 1005:1 1011:1 1037:1 1041:1 1051:1 1061:1 1085:1 1090:1 1120:1 1138:1 1139:1 1146:1 1149:1 1157:1 1214:1 1291:1 1293:1 1323:1 1346:1 1354:1 1391:1 1421:1 1429:1 1445:1 1486:1 1522:1 1526:1 1561:1 1605:1 1608:1 1617:1 1652:1 1727:1 1745:1 1784:1 1836:1 1855:1 1881:1 1894:1 2036:1 2071:1 2096:1 2151:1 2209:1 2290:1 2304:1 2412:1 2414:1 2562:1 2630:1 2788:1 3095:1 3397:1 3483:1 3598:1 3809:1 3915:1 3968:1 3977:1 4006:1 4140:1 4321:1 4538:1 4886:1 5117:1 5454:1 5625:1 #
0.0072209455413501993578662130346402 4:1 6:1 7:1 11:1 15:1 17:1 24:1 31:1 33:1 37:1 38:1 42:1 45:1 48:1 54:1 59:1 61:1 62:1 64:1 68:1 73:1 75:1 77:1 78:1 82:1 96:1 98:1 100:1 107:1 120:1 121:1 130:1 132:1 141:1 146:1 156:1 159:1 161:1 177:1 195:1 205:1 213:1 227:1 232:1 243:1 245:1 282:1 285:1 293:1 332:1 344:1 347:1 360:1 362:1 382:1 425:1 427:1 434:1 439:1 486:1 494:1 503:1 520:1 529:1 553:1 574:1 671:1 692:1 717:1 728:1 737:1 758:1 765:1 784:1 797:1 823:1 925:1 930:1 989:1 1006:1 1057:1 1116:1 1120:1 1144:1 1169:1 1183:1 1208:1 1225:1 1244:1 1281:1 1318:1 1363:1 1364:1 1393:1 1400:1 1529:1 1576:1 1659:1 1690:1 1692:1 1706:1 1723:1 1727:1 1740:1 1866:1 1928:1 1931:1 1963:1 1987:1 2006:1 2050:1 2055:1 2068:1 2228:1 2283:1 2451:1 2548:1 2624:1 2642:1 2647:1 2882:1 3061:1 3112:1 3284:1 3503:1 3529:1 3824:1 3912:1 4333:1 4510:1 4553:1 4587:1 4641:1 4852:1 4896:1 5385:1 5412:1 5692:1 5778:1 6154:1 6238:1 6368:1 6770:1 6876:1 7433:1 7564:1 8059:1 8067:1 8181:1 8568:1 9038:1 9789:1 #
0.0048619947554843613926611745057471 5:1 6:1 7:1 8:1 15:1 17:1 24:1 31:1 33:1 35:1 37:1 38:1 40:1 42:1 47:1 48:1 50:1 59:1 64:1 70:1 71:1 73:1 75:1 80:1 87:1 93:1 98:1 104:1 107:1 120:1 142:1 156:1 166:1 172:1 181:1 192:1 193:1 194:1 227:1 237:1 242:1 256:1 268:1 284:1 302:1 330:1 345:1 428:1 434:1 438:1 442:1 448:1 455:1 465:1 481:1 482:1 501:1 524:1 563:1 568:1 594:1 616:1 659:1 714:1 718:1 760:1 765:1 795:1 814:1 846:1 868:1 876:1 882:1 924:1 1003:1 1055:1 1073:1 1088:1 1089:1 1097:1 1123:1 1125:1 1164:1 1203:1 1273:1 1275:1 1305:1 1434:1 1528:1 1612:1 1716:1 1764:1 1772:1 1869:1 1901:1 2147:1 2259:1 2264:1 2399:1 2646:1 2699:1 2744:1 2889:1 2911:1 3045:1 3227:1 3328:1 3930:1 3962:1 3967:1 4002:1 4554:1 4771:1 4872:1 5333:1 5341:1 5677:1 6180:1 6275:1 6619:1 6734:1 6984:1 7531:1 7571:1 7768:1 9263:1 9481:1 9811:1 #
